tree
version=v4
num_class=1
num_tree_per_iteration=1
label_index=0
max_feature_idx=464
objective=binary sigmoid:1
feature_names=numero_de_cliente foto_mes active_quarter cliente_vip internet cliente_edad cliente_antiguedad mrentabilidad mrentabilidad_annual mcomisiones mactivos_margen mpasivos_margen cproductos tcuentas ccuenta_corriente mcuenta_corriente_adicional mcuenta_corriente ccaja_ahorro mcaja_ahorro mcaja_ahorro_adicional mcaja_ahorro_dolares cdescubierto_preacordado mcuentas_saldo ctarjeta_debito ctarjeta_debito_transacciones mautoservicio ctarjeta_visa ctarjeta_visa_transacciones mtarjeta_visa_consumo ctarjeta_master ctarjeta_master_transacciones mtarjeta_master_consumo cprestamos_prendarios mprestamos_prendarios cprestamos_hipotecarios mprestamos_hipotecarios cplazo_fijo mplazo_fijo_dolares mplazo_fijo_pesos cinversion1 minversion1_pesos minversion1_dolares cinversion2 minversion2 cseguro_vida cseguro_auto cseguro_vivienda cseguro_accidentes_personales ccaja_seguridad cpayroll_trx mpayroll mpayroll2 cpayroll2_trx ccuenta_debitos_automaticos mcuenta_debitos_automaticos ctarjeta_visa_debitos_automaticos mttarjeta_visa_debitos_automaticos ctarjeta_master_debitos_automaticos mttarjeta_master_debitos_automaticos cpagodeservicios mpagodeservicios cpagomiscuentas mpagomiscuentas ccajeros_propios_descuentos mcajeros_propios_descuentos ctarjeta_visa_descuentos mtarjeta_visa_descuentos ctarjeta_master_descuentos mtarjeta_master_descuentos ccomisiones_mantenimiento mcomisiones_mantenimiento ccomisiones_otras mcomisiones_otras cforex cforex_buy mforex_buy cforex_sell mforex_sell ctransferencias_recibidas mtransferencias_recibidas ctransferencias_emitidas mtransferencias_emitidas cextraccion_autoservicio mextraccion_autoservicio ccheques_depositados mcheques_depositados ccheques_emitidos mcheques_emitidos ccheques_depositados_rechazados mcheques_depositados_rechazados ccheques_emitidos_rechazados mcheques_emitidos_rechazados tcallcenter ccallcenter_transacciones thomebanking chomebanking_transacciones ccajas_transacciones ccajas_consultas ccajas_depositos ccajas_extracciones ccajas_otras catm_trx matm catm_trx_other matm_other ctrx_quarter tmobile_app cmobile_app_trx Master_delinquency Master_status Master_mfinanciacion_limite Master_Fvencimiento Master_Finiciomora Master_msaldototal Master_msaldopesos Master_msaldodolares Master_mconsumospesos Master_mconsumosdolares Master_mlimitecompra Master_madelantopesos Master_madelantodolares Master_fultimo_cierre Master_mpagado Master_mpagospesos Master_mpagosdolares Master_fechaalta Master_mconsumototal Master_cconsumos Master_cadelantosefectivo Master_mpagominimo Visa_delinquency Visa_status Visa_mfinanciacion_limite Visa_Fvencimiento Visa_Finiciomora Visa_msaldototal Visa_msaldopesos Visa_msaldodolares Visa_mconsumospesos Visa_mconsumosdolares Visa_mlimitecompra Visa_madelantopesos Visa_madelantodolares Visa_fultimo_cierre Visa_mpagado Visa_mpagospesos Visa_mpagosdolares Visa_fechaalta Visa_mconsumototal Visa_cconsumos Visa_cadelantosefectivo Visa_mpagominimo lag_1_mcuentas_saldo lag_2_mcuentas_saldo delta_1_mcuentas_saldo delta_2_mcuentas_saldo lag_1_mrentabilidad_annual lag_2_mrentabilidad_annual delta_1_mrentabilidad_annual delta_2_mrentabilidad_annual lag_1_mactivos_margen lag_2_mactivos_margen delta_1_mactivos_margen delta_2_mactivos_margen lag_1_cliente_edad lag_2_cliente_edad delta_1_cliente_edad delta_2_cliente_edad lag_1_foto_mes lag_2_foto_mes delta_1_foto_mes delta_2_foto_mes lag_1_Master_fechaalta lag_2_Master_fechaalta delta_1_Master_fechaalta delta_2_Master_fechaalta lag_1_Visa_fechaalta lag_2_Visa_fechaalta delta_1_Visa_fechaalta delta_2_Visa_fechaalta lag_1_Visa_mfinanciacion_limite lag_2_Visa_mfinanciacion_limite delta_1_Visa_mfinanciacion_limite delta_2_Visa_mfinanciacion_limite lag_1_cliente_antiguedad lag_2_cliente_antiguedad delta_1_cliente_antiguedad delta_2_cliente_antiguedad lag_1_mcaja_ahorro lag_2_mcaja_ahorro delta_1_mcaja_ahorro delta_2_mcaja_ahorro lag_1_ctrx_quarter lag_2_ctrx_quarter delta_1_ctrx_quarter delta_2_ctrx_quarter lag_1_mcuenta_corriente lag_2_mcuenta_corriente delta_1_mcuenta_corriente delta_2_mcuenta_corriente lag_1_Visa_Fvencimiento lag_2_Visa_Fvencimiento delta_1_Visa_Fvencimiento delta_2_Visa_Fvencimiento lag_1_Master_Fvencimiento lag_2_Master_Fvencimiento delta_1_Master_Fvencimiento delta_2_Master_Fvencimiento lag_1_mcomisiones lag_2_mcomisiones delta_1_mcomisiones delta_2_mcomisiones lag_1_numero_de_cliente lag_2_numero_de_cliente delta_1_numero_de_cliente delta_2_numero_de_cliente lag_1_chomebanking_transacciones lag_2_chomebanking_transacciones delta_1_chomebanking_transacciones delta_2_chomebanking_transacciones lag_1_Visa_mpagominimo lag_2_Visa_mpagominimo delta_1_Visa_mpagominimo delta_2_Visa_mpagominimo lag_1_Master_mlimitecompra lag_2_Master_mlimitecompra delta_1_Master_mlimitecompra delta_2_Master_mlimitecompra lag_1_Visa_msaldopesos lag_2_Visa_msaldopesos delta_1_Visa_msaldopesos delta_2_Visa_msaldopesos lag_1_mpasivos_margen lag_2_mpasivos_margen delta_1_mpasivos_margen delta_2_mpasivos_margen lag_1_mrentabilidad lag_2_mrentabilidad delta_1_mrentabilidad delta_2_mrentabilidad lag_1_cproductos lag_2_cproductos delta_1_cproductos delta_2_cproductos lag_1_mcomisiones_otras lag_2_mcomisiones_otras delta_1_mcomisiones_otras delta_2_mcomisiones_otras lag_1_ctarjeta_visa_transacciones lag_2_ctarjeta_visa_transacciones delta_1_ctarjeta_visa_transacciones delta_2_ctarjeta_visa_transacciones lag_1_mcuenta_debitos_automaticos lag_2_mcuenta_debitos_automaticos delta_1_mcuenta_debitos_automaticos delta_2_mcuenta_debitos_automaticos lag_1_mcomisiones_mantenimiento lag_2_mcomisiones_mantenimiento delta_1_mcomisiones_mantenimiento delta_2_mcomisiones_mantenimiento lag_1_mtarjeta_visa_consumo lag_2_mtarjeta_visa_consumo delta_1_mtarjeta_visa_consumo delta_2_mtarjeta_visa_consumo lag_1_mtransferencias_recibidas lag_2_mtransferencias_recibidas delta_1_mtransferencias_recibidas delta_2_mtransferencias_recibidas lag_1_Visa_mlimitecompra lag_2_Visa_mlimitecompra delta_1_Visa_mlimitecompra delta_2_Visa_mlimitecompra lag_1_Master_mfinanciacion_limite lag_2_Master_mfinanciacion_limite delta_1_Master_mfinanciacion_limite delta_2_Master_mfinanciacion_limite lag_1_Visa_msaldototal lag_2_Visa_msaldototal delta_1_Visa_msaldototal delta_2_Visa_msaldototal lag_1_mcaja_ahorro_dolares lag_2_mcaja_ahorro_dolares delta_1_mcaja_ahorro_dolares delta_2_mcaja_ahorro_dolares lag_1_Visa_cconsumos lag_2_Visa_cconsumos delta_1_Visa_cconsumos delta_2_Visa_cconsumos lag_1_Visa_mpagospesos lag_2_Visa_mpagospesos delta_1_Visa_mpagospesos delta_2_Visa_mpagospesos lag_1_Visa_mconsumototal lag_2_Visa_mconsumototal delta_1_Visa_mconsumototal delta_2_Visa_mconsumototal lag_1_mpayroll lag_2_mpayroll delta_1_mpayroll delta_2_mpayroll lag_1_thomebanking lag_2_thomebanking delta_1_thomebanking delta_2_thomebanking lag_1_ccomisiones_otras lag_2_ccomisiones_otras delta_1_ccomisiones_otras delta_2_ccomisiones_otras lag_1_ccallcenter_transacciones lag_2_ccallcenter_transacciones delta_1_ccallcenter_transacciones delta_2_ccallcenter_transacciones lag_1_Master_fultimo_cierre lag_2_Master_fultimo_cierre delta_1_Master_fultimo_cierre delta_2_Master_fultimo_cierre lag_1_Master_msaldopesos lag_2_Master_msaldopesos delta_1_Master_msaldopesos delta_2_Master_msaldopesos lag_1_Master_msaldototal lag_2_Master_msaldototal delta_1_Master_msaldototal delta_2_Master_msaldototal lag_1_mttarjeta_visa_debitos_automaticos lag_2_mttarjeta_visa_debitos_automaticos delta_1_mttarjeta_visa_debitos_automaticos delta_2_mttarjeta_visa_debitos_automaticos lag_1_ccomisiones_mantenimiento lag_2_ccomisiones_mantenimiento delta_1_ccomisiones_mantenimiento delta_2_ccomisiones_mantenimiento lag_1_mtransferencias_emitidas lag_2_mtransferencias_emitidas delta_1_mtransferencias_emitidas delta_2_mtransferencias_emitidas lag_1_Visa_mconsumospesos lag_2_Visa_mconsumospesos delta_1_Visa_mconsumospesos delta_2_Visa_mconsumospesos lag_1_ctarjeta_debito_transacciones lag_2_ctarjeta_debito_transacciones delta_1_ctarjeta_debito_transacciones delta_2_ctarjeta_debito_transacciones lag_1_ccaja_ahorro lag_2_ccaja_ahorro delta_1_ccaja_ahorro delta_2_ccaja_ahorro lag_1_internet lag_2_internet delta_1_internet delta_2_internet lag_1_mautoservicio lag_2_mautoservicio delta_1_mautoservicio delta_2_mautoservicio lag_1_ctransferencias_recibidas lag_2_ctransferencias_recibidas delta_1_ctransferencias_recibidas delta_2_ctransferencias_recibidas lag_1_mpagomiscuentas lag_2_mpagomiscuentas delta_1_mpagomiscuentas delta_2_mpagomiscuentas lag_1_Visa_mconsumosdolares lag_2_Visa_mconsumosdolares delta_1_Visa_mconsumosdolares delta_2_Visa_mconsumosdolares lag_1_ctarjeta_debito lag_2_ctarjeta_debito delta_1_ctarjeta_debito delta_2_ctarjeta_debito lag_1_ctransferencias_emitidas lag_2_ctransferencias_emitidas delta_1_ctransferencias_emitidas delta_2_ctransferencias_emitidas lag_1_Master_mpagominimo lag_2_Master_mpagominimo delta_1_Master_mpagominimo delta_2_Master_mpagominimo lag_1_cpayroll_trx lag_2_cpayroll_trx delta_1_cpayroll_trx delta_2_cpayroll_trx lag_1_mplazo_fijo_dolares lag_2_mplazo_fijo_dolares delta_1_mplazo_fijo_dolares delta_2_mplazo_fijo_dolares lag_1_ccaja_seguridad lag_2_ccaja_seguridad delta_1_ccaja_seguridad delta_2_ccaja_seguridad lag_1_Visa_fultimo_cierre lag_2_Visa_fultimo_cierre delta_1_Visa_fultimo_cierre delta_2_Visa_fultimo_cierre lag_1_ctarjeta_visa_debitos_automaticos lag_2_ctarjeta_visa_debitos_automaticos delta_1_ctarjeta_visa_debitos_automaticos delta_2_ctarjeta_visa_debitos_automaticos lag_1_mtarjeta_master_consumo lag_2_mtarjeta_master_consumo delta_1_mtarjeta_master_consumo delta_2_mtarjeta_master_consumo trend_4_mcuentas_saldo trend_4_mrentabilidad_annual trend_4_mactivos_margen trend_4_cliente_edad trend_4_Master_fechaalta trend_4_Visa_fechaalta trend_4_Visa_mfinanciacion_limite trend_4_cliente_antiguedad trend_4_mcaja_ahorro trend_4_ctrx_quarter trend_4_mcuenta_corriente trend_4_Visa_Fvencimiento trend_4_Master_Fvencimiento trend_4_mcomisiones trend_4_chomebanking_transacciones trend_4_Visa_mpagominimo trend_4_Master_mlimitecompra trend_4_Visa_msaldopesos trend_4_mpasivos_margen trend_4_mrentabilidad trend_4_cproductos trend_4_mcomisiones_otras trend_4_ctarjeta_visa_transacciones trend_4_mcuenta_debitos_automaticos trend_4_mcomisiones_mantenimiento trend_4_mtarjeta_visa_consumo trend_4_mtransferencias_recibidas trend_4_Visa_mlimitecompra trend_4_Master_mfinanciacion_limite trend_4_Visa_msaldototal trend_4_mcaja_ahorro_dolares trend_4_Visa_cconsumos trend_4_Visa_mpagospesos trend_4_Visa_mconsumototal trend_4_mpayroll trend_4_thomebanking trend_4_ccomisiones_otras trend_4_ccallcenter_transacciones trend_4_Master_fultimo_cierre trend_4_Master_msaldopesos trend_4_Master_msaldototal trend_4_mttarjeta_visa_debitos_automaticos trend_4_ccomisiones_mantenimiento trend_4_mtransferencias_emitidas trend_4_Visa_mconsumospesos trend_4_ctarjeta_debito_transacciones trend_4_ccaja_ahorro trend_4_internet trend_4_mautoservicio trend_4_ctransferencias_recibidas trend_4_mpagomiscuentas trend_4_Visa_mconsumosdolares trend_4_ctarjeta_debito trend_4_ctransferencias_emitidas trend_4_Master_mpagominimo trend_4_cpayroll_trx trend_4_mplazo_fijo_dolares trend_4_ccaja_seguridad trend_4_Visa_fultimo_cierre trend_4_ctarjeta_visa_debitos_automaticos trend_4_mtarjeta_master_consumo
feature_infos=[249221109:1598206246] [202101:202106] [0:1] [0:1] [0:4] [18:102] [1:378] [-303344.73999999999:614471.73999999999] [-1117004.51:4360094.1100000003] [-39375.730000000003:366712.03999999998] [-263834.03999999998:381076.47999999998] [-37787.07:519486.54999999999] [3:16] [1:2] [1:3] [-50730.860000000001:4243127.1200000001] [-2065768.4099999999:18065125.489999998] [2:10] [-15048.51:40285485.229999997] [-351.76999999999998:3449683.4700000002] [-25470.150000000001:76276300.780000001] [0:1] [-25118916.539999999:102200583.17] [0:25] [0:170] [0:872300.03000000003] [0:3] [0:596] [0:1829079.3899999999] [0:2] [0:200] [0:2075827.01] [0:20] [0:23460000] [0:23] [0:22867337.920000002] [0:61] [0:86684700] [0:47924270.469999999] [0:16] [0:62525337.170000002] [0:43332094.850000001] [0:72] [0:288522263.92000002] [0:3] [0:4] [0:5] [0:2] [0:6] [0:71] [0:44295403.009999998] [0:616940.70999999996] [0:5] [0:86] [0:22601499.579999998] [0:56] [0:485738.94] [0:31] [0:275011.70000000001] [0:18] [0:620849.21999999997] [0:292] [0:74908746.239999995] [0:13] [0:23352.970000000001] [0:16] [0:71544.089999999997] [0:23] [0:41819.440000000002] [0:18] [-15494.48:6444.2200000000003] [0:385] [-39375.730000000003:366712.03999999998] [0:12] [0:8] [0:9970.5] [0:12] [0:2641.9400000000001] [0:722] [0:292532282.70999998] [0:201] [0:73170311.450000003] [0:220] [0:1759500] [0:249] [0:15479374.800000001] [0:116] [0:46917026.490000002] [0:7] [0:1876800] [0:17] [0:2932500] [0:1] [0:131] [0:1] [0:6671] [0:1] [0:70] [0:29] [0:15] [0:84] [0:220] [0:1759500] [0:52] [0:1716783.9299999999] [0:2746] [0:1] [0:1] [0:1] [0:9] [0:339068148.14999998] [-2914148:5176] [-1:268] [-595001.66000000003:3940528.4399999999] [-595001.66000000003:3932000.3799999999] [-572512.95999999996:1218059.3500000001] [-30204.25:2075827.01] [0:12569.08] [1231.6500000000001:9819417.5999999996] [0:97936.910000000003] [0:1047.45] [-3:3290] [0:1045267.1899999999] [-3717003.7599999998:186758.01000000001] [0:26434.09] [1:7693] [-30204.25:2075827.01] [0:101] [0:13] [0:1820812.71] [0:1] [0:9] [0:171404488.81] [-2914237:4626] [0:234] [-1218009.3:3647174.6000000001] [-844622.83999999997:4278135.7999999998] [-912593.13:745705.65000000002] [-52546.650000000001:1792028.6799999999] [0:10594.75] [1011.71:9819417.5999999996] [0:49266] [0:198.40000000000001] [-3:156] [0:1695121.2] [-2862599.6699999999:186286.66] [0:8904.5499999999993] [1:12655] [-52546.650000000001:1792028.6799999999] [0:226] [0:16] [0:3659501.9399999999] [-11681342.85:86399160.680000007] [-11681342.85:84340173.200000003] [-39687177.710000001:47305150.870000005] [-30002274.640000001:48987147.970000006] [-1234660.28:4260550.04] [-1234660.28:4159114.0699999998] [-389598.56999999983:581273.63000000012] [-541569.62:890258.1100000001] [-265149.77000000002:381076.47999999998] [-198945.44:332150.96000000002] [-439109.77000000002:428935.20000000001] [-449006.45000000001:381383.76000000001] [18:102] [18:102] [-5:1] [-5:10] [202008:202105] [202008:202104] [1:97] [2:95] [1:7663] [1:7632] [-7536:181] [-7505:4507] [1:12625] [1:12594] [-10358:2666] [-10327:2697] [0:290576376.63999999] [0:339068148.14999998] [-287412621.10000002:168550931.71000001] [-335259958.70999998:168647281.22999999] [1:377] [1:376] [-172:9] [-171:6] [-15048.51:30287613.850000001] [-8109.6899999999996:36637941.170000002] [-15033662.630000001:32103444.670000002] [-28482432.43:39449788.689999998] [0:2390] [0:2314] [-446:933] [-492:645] [-2065768.4099999999:19681673] [-2065768.4099999999:18211067.57] [-11413960.59:6972812.6399999997] [-8906915.2199999988:8056470.7599999998] [-2914268:4596] [-2914299:4964] [-2912811:2913995] [-2912871:2914026] [-2914178:5145] [-2914209:5115] [-2891:92] [-2863:122] [-134235.23999999999:280134.89000000001] [-134235.23999999999:142724.97] [-161786.48000000001:273996.75] [-112895.41:313567.12] [249221109:1595532012] [249221109:1591588917] [0:0] [0:0] [0:3076] [0:3264] [-1122:6347] [-2063:6520] [0:3659501.9399999999] [0:2355102.48] [-3659501.9399999999:1799358.5399999998] [-2355102.48:2580811.1400000001] [985.32000000000005:9475400.1600000001] [985.32000000000005:9108861.1199999992] [-2123146.2200000002:766983.64000000001] [-2752868.4500000002:903299.70999999996] [-844622.83999999997:4014222.0699999998] [-654437.63:3291983.3700000001] [-4132891.2799999998:1821622.0800000001] [-2828489.77:2642053.7000000002] [-37852.410000000003:383457.01000000001] [-103791.28999999999:2414341.23] [-273915.62:412163.06] [-2309792.6400000001:506484.12] [-238589.10999999999:467860.59000000003] [-237978.85999999999:2832072.9100000001] [-524352.45999999996:493603.79999999999] [-2707039.2599999998:600798.28000000003] [3:16] [3:16] [-7:5] [-7:6] [-134235.23999999999:280134.89000000001] [-134235.23999999999:142724.97] [-161786.48000000001:273996.75] [-112895.41:313567.12] [0:596] [0:387] [-593:489] [-363:506] [0:22542514.829999998] [0:9194103.1300000008] [-8864071.5700000003:7496832.04] [-9194103.1300000008:22574406.649999999] [-15756.950000000001:10750.059999999999] [-15756.950000000001:10750.059999999999] [-15494.48:15756.950000000001] [-15494.48:15756.950000000001] [0:2258308.7799999998] [0:2240793.3700000001] [-1943784.8:1242839.1200000001] [-1526976.3:1524875.3199999998] [0:243245074.97999999] [0:938923768.65999997] [-107227449:57780491.189999998] [-938677211.98000002:95194223.480000004] [1011.71:9475400.1600000001] [1011.71:9212742] [-3518218.5800000001:1917338.8799999999] [-3439102.3100000005:1917338.8799999999] [0:291918891.32999998] [0:291918891.32999998] [-290690854.47000003:335430769.27999997] [-288704107.48000002:335555251.50999999] [-703517.83999999997:3422184.21] [-557917.84999999998:2807522.6699999999] [-3523351.4900000002:1552960] [-2411329.7400000002:2252390.2000000002] [-21070.830000000002:74399551.239999995] [-20478.119999999999:74630762.980000004] [-22314981.890000001:35539197.590000004] [-32377668.84:37913657.460000001] [0:241] [0:250] [-109:217] [-107:206] [-2167704:311131.85999999999] [-1943019.1799999999:36433.18] [-2648574.2400000002:1744720.2] [-2645986.9100000001:1894761.4399999999] [-35553.610000000001:1991901.78] [-39557.459999999999:1520197.4299999999] [-1522196.2:1238852.0599999998] [-1123629.0299999998:1490729.54] [0:44295403.009999998] [0:30093286.960000001] [-44295403.009999998:43924955.539999999] [-27890064.950000003:41125965.229999997] [0:1] [0:1] [-1:1] [-1:1] [0:365] [0:369] [-62:52] [-196:104] [0:100] [0:101] [-90:131] [-57:130] [-3:156] [-3:4695] [-21:31] [-26:62] [-636427.31999999995:3725562] [-771535.81000000006:3713936.6200000001] [-1329306.3700000001:1900877.6899999999] [-1638375.02:1307835.47] [-636427.31999999995:3729002.5099999998] [-1201969.6799999999:3755397.6499999999] [-3325374.3999999999:1900877.6899999999] [-1935755.5800000001:1277373.4399999999] [0:406042.02000000002] [0:338757.12] [-355981.51000000001:329946.08000000002] [-262362.85999999999:365911.46000000002] [0:31] [0:31] [-29:12] [-30:14] [0:136562112.53] [0:136562112.53] [-63391801.079999998:24442369.739999998] [-70184312.840000004:24494568.239999998] [-35553.610000000001:1991901.78] [-39557.459999999999:1520197.4299999999] [-1522196.2:1238852.0599999998] [-1123629.0299999998:1490729.54] [0:223] [0:192] [-189:86] [-85:93] [2:10] [2:10] [-4:4] [-4:4] [0:4] [0:4] [-4:3] [-3:3] [0:938373.15000000002] [0:721959.20999999996] [-704002.01000000001:531939.98999999999] [-608415.90000000002:630425.80999999994] [0:653] [0:668] [-338:181] [-258:236] [0:111651523.34999999] [0:933611338.70000005] [-111651523.34999999:74892788.780000001] [-933607681.53999996:69901703.269999996] [0:17793.98] [0:13324.540000000001] [-16084.66:8603.6800000000003] [-11670.309999999999:7915.6399999999994] [0:25] [0:24] [-3:3] [-3:5] [0:216] [0:189] [-103:84] [-162:115] [0:1526401.4399999999] [0:1257256.5900000001] [-1438555.47:1086022.05] [-1257256.5800000001:959244.20999999996] [0:80] [0:80] [-51:42] [-69:66] [0:86684700] [0:81875400] [-9384000:30732600] [-23518650:29624433.629999999] [0:6] [0:6] [-1:2] [-2:2] [-3:1771] [-3:4681] [-28:31] [-25:62] [0:49] [0:56] [-38:25] [-38:36] [0:2224296.8799999999] [0:2080577.51] [-1990841.49:1822989.4299999999] [-1618947.6499999999:1125472.3600000001] [-12864100.380000001:21179959.383000001] [-244099.52499999999:908536.76700000023] [-164142.82599999994:109670.35799999996] [-1.4999999999999996:3.9999999999999991] [-2239.9999999999982:1808.7] [-3254.6999999999985:1562.8000000000011] [-33478902.10699999:50634335.596999981] [-68.199999999999974:8.9999999999999964] [-2852042.3389999983:12736322.015999991] [-218.29999999999987:258.79999999999995] [-4022051.2969999942:3179648.2880000002] [-1165141.8999999999:1165616.6000000001] [-2161:874120] [-62461.978999999992:119574.50099999996] [-628.00000000000011:1930.9999999999989] [-432677.47199999972:979853.8199999996] [-954399.86899999995:395687.2099999999] [-686482.69499999983:1045558.5889999996] [-283420.72200000001:163717.43499999991] [-395717.50699999993:191894.33499999999] [-3:3] [-62435.169999999984:119574.50099999996] [-105.90000000000001:156.79999999999995] [-3210847.711999998:9022854.5019999966] [-6197.7920000000004:5206.0749999999989] [-670560.44400000002:485338.57299999992] [-93884253.455999836:32689112.246000007] [-997264.19699999958:648553.90200000023] [-29021803.703999963:100715945.34799996] [-570737.33099999966:891354.2969999999] [-11797890.577999994:22174944.513999999] [-40.099999999999973:59.999999999999993] [-810125.86399999959:538865.30200000003] [-678582.02599999984:562007.63000000012] [-4583544.4020000007:12855312.122999994] [-1.0000000000000002:1] [-80.499999999999986:40.499999999999993] [-28.000000000000007:37.999999999999993] [-10.999999999999998:30.600000000000009] [-466855.57399999979:593018.11799999978] [-486753.94799999997:514055.5199999999] [-61398.078000000001:104264.55299999996] [-16.000000000000004:5.5999999999999979] [-26064998.399999995:8067539.5409999993] [-678582.02599999984:562007.63000000012] [-44.000000000000007:72] [-2.0000000000000009:2] [-1.0999999999999992:3.0000000000000004] [-221108.88:233062.84999999992] [-90.599999999999994:71] [-93360686.217999846:21928756.373999991] [-7782.8339999999998:3801.7459999999983] [-2.0000000000000004:1.8999999999999999] [-79.899999999999977:56.499999999999993] [-320217.26999999979:306510.7649999999] [-15.699999999999996:24.199999999999989] [-8298974.9999999944:11599294.006999996] [-0.79999999999999971:0.69999999999999984] [-10.999999999999998:30.599999999999991] [-11.099999999999996:7.9999999999999991] [-345755.6869999998:372232.76899999991]
tree_sizes=9354 10338 10418 10437 10354 10705 10933 10420 9988 10703 10995 10166 10054 10634 10522 10636 10724 10864 10393 11063 10754 10964 10389 10400 10816 10706 10359 10671 10285 10725 11031 11156 10942 10365 10900 10502 10798 11002 10584 10754 10388 10480 10670 11026 10897 10905 10507 10331 10720 10673 10708 10716 10493 10388 11161 10632 10604 10296 10712 10441 10523 10385 10612 10986 10632 10755 10619 10613 10943 10586 10927 10728 10435 10639 10635 10859 10747 10498 9945 10283 10516 10606 9834 10760 10499 11015 10488 10261 10208

Tree=0
num_leaves=86
num_cat=0
split_feature=233 136 83 155 428 24 132 136 24 412 241 136 233 155 428 264 136 233 155 233 298 298 241 71 277 147 233 155 233 71 298 298 71 264 233 71 233 353 159 136 155 429 155 422 264 155 163 92 320 320 333 118 147 408 209 448 283 236 165 408 83 333 333 201 136 80 375 147 155 298 234 83 158 165 320 201 353 284 374 220 138 406 273 117 24
split_gain=12184.7 5811.7 3416.05 1877.02 1685.08 1012.99 943.466 722.898 624.01 560.278 429.407 375.368 276.162 235.62 235.096 158.57 148.998 148.341 147.675 122.716 100.759 136.987 95.2994 71.9271 71.3359 69.4084 67.5509 62.3494 52.1108 34.0719 33.4757 53.629 55.3371 31.0005 28.6704 23.765 20.8134 19.6774 14.9266 14.402 11.8812 13.788 10.1908 7.10493 6.49455 5.09891 4.77942 4.18355 4.17073 4.05664 3.91908 3.38735 2.85333 2.62941 2.3709 3.30885 2.20668 2.04138 1.56634 1.42603 1.30842 1.30428 0.716971 0.925248 0.696081 0.666589 0.607436 0.504618 0.485372 0.472975 0.772628 0.350772 0.318075 0.285893 0.549044 0.174683 0.159546 0.381183 0.0871457 0.0789298 0.221068 0.0467323 1.13687e-13 5.68434e-14 2.84217e-14
threshold=85.235000000000014 3133.4400000000005 1.0000000180025095e-35 -1643.21 357.50000000000006 1.0000000180025095e-35 1.0000000180025095e-35 6588.4800000000005 1.0000000180025095e-35 156.76950000000002 6.5000000000000009 8334.7700000000023 632.8950000000001 586.9000000000002 97.366500000000073 1877.9700000000003 3133.4400000000005 435.09000000000009 -520.09500000000037 435.09000000000009 1.0000000180025095e-35 -1.0000000180025095e-35 5.5000000000000009 7.5000000000000009 10662.405000000001 4585.5000000000009 562.12500000000011 1.0000000180025095e-35 273.30500000000006 4.5000000000000009 1.0000000180025095e-35 -1.0000000180025095e-35 6.5000000000000009 5865.5850000000009 709.61500000000012 9.5000000000000018 709.61500000000012 4133.5350000000008 246.62000000000015 15403.270000000002 10505.805000000006 -2546.7544999999895 -4883.3899999999985 5.5400000000000178 41618.44000000001 -1.0000000180025095e-35 -542.34499999999991 1.0000000180025095e-35 2843.3600000000001 1588.0350000000003 10088.865000000002 622004.29000000015 1167.5000000000002 30.599999999999948 2576.4300000000007 -2406.2639999999978 0.21000000000000038 418.71500000000009 55.500000000000007 30.40000000000051 5923.6500000000005 5044.6150000000007 102376.50500000002 -1139.4999999999998 11795.935000000003 3.5000000000000004 1.0000000180025095e-35 1691.5000000000002 -43079.134999999995 -63905.624999999993 -9.2699999999999889 10586.325000000003 1742.8050000000001 55.500000000000007 1.0000000180025095e-35 -820.49999999999989 11355.160000000002 3.5000000000000004 -1.0000000180025095e-35 1941.3150000000003 13830.020000000002 295.92849999999999 507400.7950000001 14.065000000000003 5.5000000000000009
decision_type=8 10 2 10 10 2 10 10 2 10 10 10 8 8 10 10 10 10 10 8 8 10 10 2 10 8 8 10 10 2 8 10 2 8 8 2 8 10 10 10 10 10 8 10 10 8 10 2 8 8 10 8 10 8 8 8 10 10 10 8 2 8 10 8 10 2 8 10 8 10 10 2 10 10 8 8 8 10 10 8 10 10 8 8 2
left_child=1 2 3 10 5 6 -2 -6 14 15 22 13 18 17 24 25 20 -8 -9 23 21 42 -1 27 -3 -5 -23 -13 -15 33 31 52 34 -21 -33 -14 39 -10 -4 -34 41 -31 -7 -25 49 -36 -41 54 -48 -43 -39 57 53 -18 55 -38 -42 -22 69 -60 65 -44 64 -64 66 -57 71 -59 -56 70 -54 -32 -70 76 -75 81 77 -66 -79 80 -78 83 -81 -71 -80
right_child=4 8 38 9 7 16 11 12 37 -11 -12 19 35 28 -16 -17 30 -19 -20 29 51 26 -24 43 -26 -27 -28 -29 -30 40 62 32 36 -35 45 -37 47 50 -40 46 56 44 61 -45 -46 -47 48 -49 -50 -51 -52 -53 58 -55 68 60 -58 67 59 -61 -62 -63 63 -65 73 -67 -68 -69 72 75 -72 -73 -74 74 -76 -77 79 78 84 82 -82 -83 -84 -85 -86
leaf_value=-1.3532231240940447 -2.2970324563603177 -2.6150416316294893 -2.8226759880121697 -2.0898100554992709 -2.2861957213710302 -2.8889049877877535 -2.5059408677084276 -2.4572000443533799 -2.8661742903085226 -2.5353590678694062 -1.8795777590683158 -2.6941520277247788 -2.7921123169521942 -2.7549425917267452 -2.4168393351523827 -2.263877206477285 -2.9473386161487087 -2.7473494253182396 -2.7423257997832562 -2.7973087196801099 -2.9473822035066304 -2.6683677819673495 -1.5972828814096611 -2.8677123368770516 -2.813633255564195 -1.9022265879242666 -2.8349505070678163 -2.8478781105084328 -2.9076669121730863 -2.8763639143882243 -2.9738725419349992 -2.8242697155094985 -2.8750371553196983 -2.91856800005703 -2.8924039360785265 -2.8984465808788631 -2.93188117137541 -2.9247812438363265 -2.7260168941489935 -2.9735897720956403 -2.9501834289019393 -2.8959929883623814 -2.9696505685421797 -2.9315967597656512 -2.9674262785137357 -2.9451094335106585 -2.9075758205337681 -2.9316981711867527 -2.9517646147692713 -2.9443035768826622 -2.9682478135242851 -2.9314873962784063 -2.9691229036224689 -2.9798949887385273 -2.9687236250682112 -2.9681685987989326 -2.9825435708525019 -2.96975214163177 -2.953141601485902 -2.9822692594969222 -2.9560109522688234 -2.9411879232117255 -2.9610868853731604 -2.9843611125958747 -2.9748622786915706 -2.9863038420419699 -2.9682895124566402 -2.9863141282975163 -2.987120358777299 -2.9882309672615888 -2.9860519576076165 -2.9870210132090813 -2.9751540989834853 -2.9710082513451415 -2.9882309672615888 -2.981475780840547 -2.9882309672615888 -2.9819698515344109 -2.9882309672615888 -2.9882309672615888 -2.9781480577898156 -2.9840900623156092 -2.9882309672615888 -2.9882309672615888 -2.9882309672615888
leaf_weight=72.101328581571579 74.999769922345877 85.856937956064939 73.945454958826303 98.242937512695789 109.36367066577077 82.167444188147783 121.27496322616935 91.074817836284637 100.29805553331971 81.429720107465982 103.19737288355827 123.85741091519594 85.540616858750582 88.755658604204655 99.718522682785988 75.948469776660204 118.27048252522945 111.68244849517941 76.211806371808052 80.744446247816086 73.998112015426159 94.500579323619604 74.104043461382389 79.005140963941813 79.637628693133593 83.221971277147532 135.08352536335588 117.37455875054002 120.06248612701893 95.923514842987061 73.681868679821491 129.97113151848316 108.15112638473511 119.3246102258563 83.590484447777271 109.41603571921587 72.416960403323174 85.751379977911711 72.048101272433996 72.258828420192003 75.473856411874294 73.734604027122259 73.207522455602884 80.059216294437647 130.76160364225507 84.117512591183186 104.93609045818448 77.529365357011557 91.180006578564644 86.014899604022503 105.88474905118346 74.577873390167952 110.73362485691905 108.78352683037519 77.476644821465015 112.99995087832212 132.86980085447431 89.967776518315077 77.529357422143221 76.053598742932081 131.34137030690908 73.892703212797642 77.950994748622179 78.109099753201008 90.442121684551239 78.425330393016338 113.68511841073632 78.846972480416298 136.08481403440237 178.40708440169692 138.7200743034482 124.91131273657084 80.902478780597448 87.754158336669207 81.587641552090645 134.2401359193027 147.25831427425146 72.416940830647945 96.239685706794262 377.63272074982524 74.946791239082813 72.996696386486292 144.62305453419685 244.49939868226647 73.681862331926823
leaf_count=1368 1423 1629 1403 1864 2075 1559 2301 1728 1903 1545 1958 2350 1623 1684 1892 1441 2244 2119 1446 1532 1404 1793 1406 1499 1511 1579 2563 2227 2278 1820 1398 2466 2052 2264 1586 2076 1374 1627 1367 1371 1432 1399 1389 1519 2481 1596 1991 1471 1730 1632 2009 1415 2101 2064 1470 2144 2521 1707 1471 1443 2492 1402 1479 1482 1716 1488 2157 1496 2582 3385 2632 2370 1535 1665 1548 2547 2794 1374 1826 7165 1422 1385 2744 4639 1398
internal_value=-2.82816 -2.3999 -2.12061 -1.95821 -2.90314 -2.92202 -2.8212 -2.62674 -2.76796 -2.18983 -1.64353 -2.84521 -2.72955 -2.72617 -2.60015 -2.08052 -2.95525 -2.62167 -2.5871 -2.88921 -2.89419 -2.8489 -1.47692 -2.82097 -2.71061 -2.00378 -2.76638 -2.76895 -2.84275 -2.92358 -2.96599 -2.9555 -2.93559 -2.86963 -2.87755 -2.85179 -2.9507 -2.92041 -2.77497 -2.9216 -2.94173 -2.92605 -2.93154 -2.89987 -2.94245 -2.91884 -2.94036 -2.96498 -2.92812 -2.92201 -2.9488 -2.95966 -2.97828 -2.96294 -2.96873 -2.96108 -2.97082 -2.96831 -2.98165 -2.96757 -2.96763 -2.95535 -2.9825 -2.97274 -2.98348 -2.9756 -2.9771 -2.97749 -2.97899 -2.98411 -2.97854 -2.98214 -2.98266 -2.98508 -2.97931 -2.98631 -2.98599 -2.98324 -2.98636 -2.98722 -2.98483 -2.98762 -2.98823 -2.98823 -2.98823
internal_weight=0 1291.39 734.239 588.246 7376.31 6904.7 1711.92 471.607 557.147 338.843 249.403 1636.92 362.243 441.776 265.213 257.413 5192.78 232.957 167.287 1195.14 776.243 458.852 146.205 400.296 165.495 181.465 229.584 241.232 208.818 794.847 4416.54 2701.62 1441.38 200.069 297.679 194.957 1143.7 291.934 145.994 376.526 594.778 386.435 229.268 159.064 290.511 167.708 268.375 767.177 196.116 159.75 191.636 317.391 1260.23 227.054 689.648 395.184 208.344 242.813 1033.18 153.583 322.767 147.1 1714.92 156.06 1558.86 191.425 312.278 168.815 294.464 879.597 249.454 198.593 216.987 1246.58 169.342 630.143 1077.24 332.781 242.338 744.461 222.205 495.903 522.256 422.906 169.922
internal_count=164456 24502 13931 11161 139954 131006 32481 8948 10571 6429 4732 31058 6873 8382 5032 4884 98525 4420 3174 22676 14728 8706 2774 7595 3140 3443 4356 4577 3962 15081 83797 51259 27348 3796 5648 3699 21700 5539 2770 7144 11285 7332 4350 3018 5512 3182 5092 14556 3721 3031 3636 6022 23911 4308 13085 7498 3953 4607 19603 2914 6124 2791 32538 2961 29577 3632 5925 3203 5587 16689 4733 3768 4117 23652 3213 11956 20439 6314 4598 14125 4216 9409 9909 8024 3224
is_linear=0
shrinkage=1


Tree=1
num_leaves=93
num_cat=0
split_feature=232 24 24 131 79 240 79 405 4 232 438 438 438 276 276 2 276 438 240 438 232 321 438 245 276 232 125 168 94 232 232 441 196 153 240 196 438 31 276 438 318 245 287 438 276 290 263 79 250 231 110 194 31 245 153 235 194 5 328 210 405 441 147 409 276 226 5 250 324 111 5 352 333 125 168 429 439 250 153 374 9 20 334 232 249 353 353 353 231 249 421 249
split_gain=6516.66 1750 853.684 728.92 594.465 339.796 291.269 259.946 178.395 176.049 164.715 167.409 162.796 160.587 158.962 112.051 108.752 104.314 104.064 89.6563 90.0456 78.5687 76.915 110.068 71.111 55.9018 54.3994 47.0168 44.9385 38.7304 35.1342 37.2509 31.1867 29.5895 25.8836 14.4064 14.3592 13.4253 11.9181 11.4822 10.7545 9.11628 8.92688 8.78817 9.8274 6.44332 6.2908 5.94012 10.0616 5.56508 4.75612 4.64721 2.124 2.11692 2.07573 3.00363 2.07005 1.45884 1.38827 1.34116 1.25315 1.17539 1.15452 1.42374 1.00481 0.829668 0.823202 0.625943 0.590855 0.510995 0.489487 0.590152 0.381619 0.338511 0.546649 0.255489 0.240993 0.18676 0.106738 0.0900517 0.0578638 0.123227 0.0142008 1.52349e-05 1.4503e-05 1.40886e-05 4.95907e-06 4.07153e-06 3.12384e-06 1.51675e-06 8.43092e-07 4.60572e-07
threshold=127.03500000000001 1.0000000180025095e-35 1.0000000180025095e-35 1.0000000180025095e-35 15807.700000000003 7.5000000000000009 23460.045000000002 512.73800000000074 1.0000000180025095e-35 713.09500000000014 1.0000000180025095e-35 -1.0000000180025095e-35 1.0000000180025095e-35 9730.6950000000015 2557.7550000000006 1.0000000180025095e-35 6901.9700000000003 1.0000000180025095e-35 7.5000000000000009 -1.0000000180025095e-35 1125.9200000000003 1.0000000180025095e-35 -1.0000000180025095e-35 580.49500000000012 2557.7550000000006 799.10000000000014 510.50000000000006 202102.50000000003 1.0000000180025095e-35 439.66000000000003 1001.0850000000002 1.0000000180025095e-35 -747.06499999999994 3096.9000000000001 8.5000000000000018 -1.0000000180025095e-35 -12154.977999999986 784.46000000000015 4068.2350000000006 1.0000000180025095e-35 64.205000000000396 2311.2550000000006 -16.499999999999996 -24509.791999999987 17773.185000000001 inf 1.0000000180025095e-35 90187.355000000025 1.0000000180025095e-35 925.00999999999988 501923.88000000006 -13.499999999999998 1202.4600000000003 979.32500000000016 121671.76000000001 -39.215000000000011 -17.499999999999996 57.500000000000007 1.0000000180025095e-35 37.745000000000012 -480.14449999999994 0.20000000000000009 1167.5000000000002 29.8000000000001 4068.2350000000006 10662.735000000017 49.500000000000007 -1.0000000180025095e-35 1123.2700000000002 -790.49999999999989 57.500000000000007 20560.815000000002 125947.20000000003 1393.5000000000002 202102.50000000003 81.874500000000026 0.25000000000000006 -2.4999999999999996 -3693.2249999999995 -3.4999999999999996 435.25500000000005 423.45500000000004 -26978.41 500.46500000000009 5.5000000000000009 14362.525000000001 11355.160000000002 7382.3250000000016 1.0000000180025095e-35 14.500000000000002 1535.2270000000024 12.500000000000002
decision_type=8 2 2 8 2 10 2 10 2 10 10 10 8 10 10 2 8 8 10 10 10 8 10 8 8 10 10 10 2 8 10 10 10 10 10 10 10 2 10 8 8 8 10 10 10 8 10 2 10 10 8 10 2 8 8 10 10 2 10 8 10 10 10 8 10 8 2 8 10 10 2 10 10 8 10 10 10 10 8 10 2 2 8 10 8 8 10 8 8 10 10 8
left_child=1 4 3 6 5 7 9 15 26 17 11 -3 14 -13 19 -1 28 18 21 36 -21 27 43 25 -7 -24 -9 -2 -17 35 31 40 -6 -11 -20 -8 -4 39 -35 41 47 49 -12 44 -16 58 -40 48 -25 -31 59 -32 -46 -39 55 -53 -45 61 62 -47 -44 73 63 -14 -64 69 -57 -55 75 -56 72 -72 76 74 -58 -65 78 -75 -66 -80 81 85 -82 -84 -79 -81 -86 -85 89 -89 -88 -90
right_child=2 10 12 -5 32 24 29 8 -10 33 42 13 45 -15 22 16 -18 -19 34 20 -22 -23 23 30 -26 -27 -28 -29 -30 37 51 -33 -34 38 -36 -37 -38 53 46 -41 -42 -43 60 56 52 50 -48 -49 -50 -51 -52 54 -54 67 65 66 57 -59 -60 -61 -62 -63 64 68 70 -67 -68 -69 -70 -71 71 -73 -74 77 -76 -77 -78 84 79 80 82 -83 83 87 86 -87 90 88 91 -91 -92 -93
leaf_value=0.39955586388551145 0.15291325642179923 -0.091595137779491215 -0.031008648528937643 0.38202285478525899 0.0054933518561880385 0.23990013906955165 -0.067886987315607633 0.43684451200455754 0.29735245507274466 0.027430685574239933 -0.075855047098693715 0.22064896078207127 -0.12527514006311469 -0.031111455442937298 -0.063641560238529613 0.26113030999799375 0.17644684112511888 -0.064575363233826552 0.071622025342304385 0.12540543518843336 -0.063718978426266754 0.079376457950667931 0.066386429079508841 -0.035776267400366275 0.073202794348668346 -0.071576599428233995 0.54721062719663516 0.30581053491244758 0.38380662697776807 -0.023446103247985791 -0.099808145387905819 0.020951053566411144 0.11743981616462647 -0.022164843719300584 -0.040407947144830501 0.012957280044890029 -0.11492905399548198 -0.11291702308792809 -0.063527653462423506 -0.14084338523696072 -0.13177116823402313 -0.11422355580147617 -0.1549149110207455 -0.12150929894968268 -0.11777841970402619 -0.1222679135336384 -0.11921935626968806 -0.11193470782451488 -0.10450177115465321 -0.081258816503754439 -0.089990349933162267 -0.10555232013256276 -0.15429117047619575 -0.13402088291552908 -0.14102301020894484 -0.15247332905045805 -0.15525601415281376 -0.13052563268197254 -0.13003868212527533 -0.14957858618826886 -0.12621799914540507 -0.1328443285873426 -0.1399270664989995 -0.14615394806926746 -0.15177441872517247 -0.13306724458887739 -0.12901176870148179 -0.15203052974781203 -0.13770746222970451 -0.15774158351768 -0.15534774895528167 -0.13697934260972244 -0.14538144166977571 -0.15011331469511455 -0.1381290783652232 -0.1576624786208537 -0.14750777376604457 -0.15890739751102848 -0.15199882220950781 -0.15890933225957302 -0.15642084194631378 -0.15212504033746496 -0.15887924723828348 -0.1588391417141202 -0.15886169506262618 -0.15881279273877921 -0.15882243403452667 -0.15883842645236221 -0.15879998161942102 -0.15880639432632718 -0.15880093431817238 -0.15878634610704814
leaf_weight=166.7384023591876 91.719852101057768 127.73946016281843 74.143621690571308 110.50180961191654 109.41814509034157 120.45793572813272 115.37316031381488 240.84668121486902 163.43753660097718 86.795774526894093 73.914446476846933 147.87038856372237 76.114891365170479 95.082376334816217 65.001291085034609 143.05578073486686 217.64986073970795 89.502242553979158 111.4849962182343 150.15512113273144 93.191461633890867 140.55011734738946 144.50428108498454 119.36411598324776 113.55577300861478 125.21438219025731 176.96446294337511 92.034915503114462 130.3569037579 81.672982174903154 94.272976279258728 76.932024583220482 118.29777926206589 71.869220521301031 81.574417348951101 89.33094035089016 125.23399074748158 67.576991431415081 83.202535685151815 72.092234253883362 119.80570118129253 76.687142301350832 70.929142866283655 64.675924833863974 80.85811810567975 73.116941198706627 104.53569647297263 82.510092131793499 82.142708960920572 71.175642464309931 67.211854241788387 95.844557821750641 66.171231511980295 77.297062698751688 66.691456407308578 66.638025537133217 122.19881177693605 79.623392757028341 72.403825804591179 93.710424825549126 68.158973831683397 63.812890134751797 118.22184117883444 70.730677120387554 85.451527450233698 81.261908750981092 70.088576324284077 102.57897088304162 78.509152479469776 111.69496812671423 84.342581085860729 75.911385465413332 78.409382801502943 69.034305308014154 65.321037143468857 116.85597892850637 66.747876774519682 63.92368358746171 66.471559166908264 64.7313631772995 62.771315410733223 112.39788530394435 88.431375440210104 91.681017052382231 64.483708091080189 74.003420989960432 88.942760538309813 64.567185785621405 105.63479650765657 70.777770828455687 78.370726961642504 121.84875976294279
leaf_count=1517 1549 2539 1521 1384 1655 1368 2094 2157 1419 1622 1331 2176 1617 1885 1390 1639 2534 1620 1938 2454 1688 2437 2697 2355 1734 2516 1905 1516 1590 1549 1985 1528 1839 1294 1493 1580 2564 1333 1643 1433 2441 1554 1494 1394 1744 1506 2085 1671 1643 1407 1362 2013 1431 1582 1400 1386 2619 1699 1520 1967 1407 1376 2510 1512 1852 1716 1466 2108 1694 2359 1813 1638 1694 1493 1399 2506 1449 1378 1444 1396 1363 2435 1913 1989 1395 1609 1932 1401 2300 1540 1706 2657
internal_value=0 0.213413 -0.0824557 0.00584175 0.290905 0.326036 -0.0185094 0.357581 0.431223 0.0370045 -0.0123843 0.0484741 -0.115661 0.12212 -0.0915408 0.292509 0.256162 0.0860744 0.112136 -0.00858303 0.0529788 0.164434 -0.107444 -0.0839217 0.15901 0.00233838 0.48359 0.229493 0.31962 -0.0887146 -0.105722 -0.0754342 0.0636492 -0.0489616 0.0242854 -0.0326073 -0.0837211 -0.109632 -0.0745021 -0.0882271 -0.0937965 -0.0717014 -0.118297 -0.139785 -0.112577 -0.147558 -0.0945377 -0.0777778 -0.0637917 -0.0503672 -0.123934 -0.130549 -0.134211 -0.135723 -0.136436 -0.126066 -0.147372 -0.149777 -0.150552 -0.137609 -0.140852 -0.152265 -0.151389 -0.143502 -0.153273 -0.145725 -0.140447 -0.144291 -0.148716 -0.151491 -0.154474 -0.146647 -0.155561 -0.154509 -0.14929 -0.153323 -0.156303 -0.157191 -0.156885 -0.157358 -0.157773 -0.155844 -0.158573 -0.158822 -0.158844 -0.158858 -0.158826 -0.158811 -0.158803 -0.158822 -0.158812 -0.158793
internal_weight=0 2284.47 6650.72 1817.56 1700.78 1473.06 1707.05 1239.05 581.249 953.27 583.695 370.692 4833.16 242.953 2752.11 657.801 491.063 606.867 517.364 442.724 243.347 324.305 2309.38 1336.97 234.014 269.719 417.811 183.755 273.413 753.785 1067.25 480.755 227.716 346.403 193.059 204.704 199.378 549.081 259.607 301.628 403.823 229.536 213.003 972.418 212.031 2081.05 187.738 284.017 201.507 152.849 234.039 586.492 147.029 247.453 492.219 232.571 760.387 695.711 1847.02 166.827 139.088 616.088 1774.61 342.211 1432.4 259.648 136.727 179.876 266.096 178.386 1314.18 160.254 1153.93 552.275 187.52 187.587 1075.52 364.755 1008.77 923.316 856.845 251.133 605.712 542.941 295.721 138.735 231.797 454.51 362.829 135.345 167.313 227.484
internal_count=164456 30189 134267 33221 19357 15863 31837 12761 5481 17197 10832 6600 101046 4061 56359 7280 5763 10553 8933 8227 4142 5502 48132 27176 3102 5213 4062 3065 3229 14640 21963 9638 3494 6644 3431 3674 4085 10966 5022 5943 8110 4510 4232 20956 4565 44687 3728 5669 3998 2956 4835 12325 3175 5023 10340 4865 16391 14997 39852 3473 2901 13298 38332 7329 31003 5475 2852 3690 5712 3759 28493 3451 25042 11922 4018 4018 23348 7904 21899 20047 18603 5440 13163 11800 6411 3005 5033 9887 7898 2941 3638 4957
is_linear=0
shrinkage=0.151134


Tree=2
num_leaves=94
num_cat=0
split_feature=105 296 296 11 428 12 428 11 245 135 231 245 428 147 244 244 70 105 428 418 71 135 71 54 71 125 412 125 135 423 11 11 114 135 125 459 339 114 71 12 234 291 71 105 140 61 184 231 459 382 283 116 382 459 184 12 340 264 333 437 266 340 61 232 105 264 264 412 459 125 408 135 407 12 147 53 340 418 135 105 343 25 25 25 25 147 135 459 333 459 71 114 233
split_gain=6470.14 779.534 618.118 481.767 315.308 281.276 212.876 184.2 164.226 133.801 82.3901 72.8313 72.6989 70.3854 60.0792 53.966 47.6781 45.2254 45.121 41.6037 35.458 34.2289 32.61 26.0863 23.0135 21.9556 21.633 21.1919 21.1481 16.8529 15.7988 14.2901 12.7489 12.4621 10.0856 9.84896 8.2933 8.53413 7.90166 7.84881 7.04831 6.23206 5.05025 5.66425 4.31866 3.99114 3.81861 3.24852 2.7562 7.20428 2.20607 1.70276 1.35546 4.48616 1.2536 1.17603 1.22082 1.09627 1.00638 0.860447 0.670193 0.613751 0.501173 0.489217 0.744561 0.955158 0.477411 0.407447 0.270536 0.251899 0.202426 0.319925 0.265954 0.197682 0.10966 0.105257 0.101555 0.0516418 0.0373091 0.015479 0.0149325 0.0021818 0.00193108 0.000719245 0.00012909 2.62663e-05 2.3121e-05 1.09097e-05 3.29689e-06 2.57277e-06 1.81618e-06 1.76201e-06 1.51148e-06
threshold=34.500000000000007 15988.020000000002 1.0000000180025095e-35 251.13500000000002 463.15349999999995 5.5000000000000009 463.15349999999995 158.74500000000003 979.32500000000016 13216.195000000002 1.0000000180025095e-35 208.37500000000003 173.33400000000017 636.50000000000011 216.34500000000003 676.0350000000002 687.2700000000001 18.500000000000004 463.15349999999995 1.0000000180025095e-35 6.5000000000000009 2699.3250000000003 4.5000000000000009 295.65000000000003 7.5000000000000009 437.50000000000006 484.42750000000075 1724.5000000000002 2699.3250000000003 -1.0000000180025095e-35 908.87500000000011 1141.3950000000002 1.0000000180025095e-35 37502.040000000001 987.50000000000011 -0.19999999999999962 609.64999999999975 2954.3000000000006 6.5000000000000009 8.5000000000000018 -9.2699999999999889 3002.2500000000023 7.5000000000000009 76.500000000000014 240699.60000000003 1.5000000000000002 76.500000000000014 29881.525000000005 -0.099999999999999825 -1.0000000180025095e-35 4.3849999999999989 20981.550000000007 -1.0000000180025095e-35 -0.29999999999999971 76.500000000000014 7.5000000000000009 11.500000000000002 61762.840000000004 73125.815000000017 2252.639499999998 -31051.019999999997 1.0000000180025095e-35 3.5000000000000004 439.66000000000003 119.50000000000001 29324.410000000003 182785.20500000005 5770.5710000000327 -0.099999999999999631 3195.5000000000005 30.400000000000023 10122.990000000002 -1.285249091940887e-15 6.5000000000000009 2787.5000000000005 1.5000000000000002 22.500000000000004 14.200000000000021 25039.625000000004 179.50000000000003 3.5000000000000004 5173.2750000000005 1.0000000180025095e-35 8680.2250000000022 7437.4100000000008 1167.5000000000002 10122.990000000002 -0.29999999999999971 49266.110000000008 0.10000000000000007 9.5000000000000018 426.98500000000007 792.96000000000015
decision_type=2 8 8 2 10 2 10 2 8 10 8 10 10 10 8 10 2 2 10 10 2 10 2 2 2 10 10 10 10 10 2 2 8 10 8 8 10 10 2 2 10 8 2 2 8 2 8 8 10 10 10 8 8 10 10 2 8 10 10 10 10 10 2 8 2 10 10 10 10 8 10 10 10 2 10 2 10 10 10 2 10 2 2 2 2 10 10 8 10 8 2 10 10
left_child=2 3 4 6 5 11 9 10 12 15 19 -1 21 -6 -4 -2 28 -9 22 25 -11 -5 -10 30 -17 -7 -19 -27 35 -12 32 34 -23 -20 -24 40 37 41 -25 -22 -3 -36 -33 -44 55 -46 47 48 49 -30 51 -38 53 -48 -45 56 -37 -51 60 68 -50 -56 73 64 65 -54 69 -68 -55 -63 76 -72 -73 -62 -74 -66 77 82 -78 83 84 -75 -65 -70 -76 -83 -84 -88 89 90 -89 -86 -85
right_child=1 16 14 8 13 7 -8 17 18 20 29 -13 -14 -15 -16 24 -18 26 33 -21 39 23 31 38 -26 27 -28 -29 46 -31 -32 42 -34 -35 36 44 50 -39 -40 -41 -42 -43 43 54 45 -47 52 -49 58 57 -52 -53 63 59 61 -57 -58 -59 -60 -61 62 66 -64 70 75 -67 67 -69 79 -71 71 72 74 81 80 -77 78 -79 -80 -81 -82 85 86 92 91 -87 87 88 -90 -91 -92 -93 -94
leaf_value=0.21990113205209227 0.15707018820142432 -0.052531031540416627 -0.089594071603556591 0.04502175880779926 0.27511932311903609 0.15394663932092512 0.23962130691076702 0.13140805395992342 -0.030539375356673115 0.017358376712917553 0.17184951680799798 0.33577960909758137 0.07743458399558642 0.4006955212527068 0.070156356962462266 0.095894684235107719 -0.0052033543305551235 0.057850073345509193 0.02436883402740803 0.28667696277349874 -0.062760398319351304 0.047328365097079814 -0.044381654116438574 -0.058841061214110965 0.0013632494629959334 0.26082578453961436 -0.04280020522476391 0.18308899973346812 -0.086571240089361359 0.1041935593726199 -0.067799558065315027 -0.097078332643350723 -0.039733389825167172 -0.063146396229616417 -0.089985404532310159 -0.1440771817145538 -0.099128006117481154 -0.12002348309226368 -0.12623104163302859 -0.12806034305731592 -0.11433420474271157 -0.033004535330893162 -0.092671915832324037 -0.12455949097787361 -0.093647417542785827 -0.13963350813630596 -0.11315302426322553 -0.10993584079957332 -0.13687948237534597 -0.15819697387616685 -0.14522971980274366 -0.1308144788067446 -0.12960048976643071 -0.14625388512110676 -0.13478822092157197 -0.1571164633692532 -0.11754708497026013 -0.1315053722465232 -0.12900371408428579 -0.13903008909619222 -0.14961581525755691 -0.14638517079102223 -0.14177897353609267 -0.15870929997075159 -0.15800114078392569 -0.15396266403185746 -0.15052807810384497 -0.13288562828733436 -0.15838783101533263 -0.15821056973726735 -0.14160212631574173 -0.14444377421709739 -0.14974573543418199 -0.15891659129994551 -0.15801322211182145 -0.14994115637890121 -0.15511293438971399 -0.15345818842032999 -0.14957294798410539 -0.15509564272848772 -0.15499660018748176 -0.15789748670477666 -0.15785639194894266 -0.15777072977147602 -0.15775714319260192 -0.157771663712342 -0.15780362947299281 -0.15776799538199368 -0.15777699562237321 -0.15771209089947344 -0.1577322697550167 -0.15772122441883304 -0.15773689091928733
leaf_weight=203.91640033200383 159.20382640138268 80.260495968163013 154.43304831534624 95.169661536812782 189.9301341176033 157.14950682595372 133.05211444571614 128.45935780927539 115.06125787645578 125.9818114452064 143.00481630861759 315.68647633492947 165.45893599838018 220.09334537386894 82.498652327805758 105.95754046365619 59.618493042886257 119.26976978778839 73.717034462839365 173.24671301618218 112.07516556233168 80.937559682875872 69.647776938974857 63.158364612609148 132.23747870698571 164.21316850185394 82.526589211076498 156.38411127775908 67.505148500204086 204.15983605012298 116.23823774978518 85.48571190610528 73.13202453777194 74.95819840580225 117.48543396964669 107.70223357155919 75.593515813350677 122.45531791448593 107.19309611991048 67.285081211477518 88.763383083045483 69.944106515496969 59.198967307806015 75.984976209700108 116.70900570228696 68.358708564192057 87.488667782396078 81.538693189620972 71.453102555125952 80.147187184542418 88.891239713877439 79.452071242034435 82.843727968633175 64.416957158595324 89.257163796573877 74.183561697602272 62.672971192747355 62.599195811897516 57.26036025211215 104.27899857982993 88.224285382777452 63.90288694575429 74.661064986139536 57.687078252434731 106.22121651470661 66.080295626074076 59.569030996412039 60.034322693943977 61.201262827962637 115.53431993350387 55.501746390014887 56.461651086807251 56.042208824306726 59.04675168171525 58.118295237421989 56.798022296279669 55.725821644067764 68.410345524549484 55.341443628072739 56.127922136336565 55.389303930103779 74.731796983629465 73.804170120507479 55.733935993164778 69.134548287838697 76.885975707322359 109.29889087378979 61.45712848752737 61.831440277397633 63.927542362362146 68.98999086394906 56.845475606620312 65.683856520801783
leaf_count=1618 2416 1676 2554 1717 1382 1362 1752 1865 2203 2213 1558 2234 2678 2039 1405 1383 1257 1970 1262 1714 2257 1596 1464 1318 2051 1375 1434 1425 1601 2054 2556 1883 1488 1493 2453 2291 1627 2600 2396 1386 1826 1363 1302 1769 2313 1479 2104 1949 1730 1906 1962 1674 1877 1565 2060 1620 1446 1504 1380 2564 2106 1506 1816 1282 2572 1522 1419 1441 1429 2728 1353 1394 1383 1315 1403 1386 1375 1678 1375 1391 1384 1825 1813 1385 1720 1910 2703 1527 1534 1600 1722 1421 1639
internal_value=0 -0.0888129 0.198261 -0.0333356 0.222628 0.196026 0.064329 0.15915 -0.0704818 0.0311404 0.191522 0.290303 -0.0101335 0.342526 -0.0339696 0.0889464 -0.139147 0.0613107 -0.0987683 0.223231 -0.0440935 -0.0371737 -0.107486 -0.0549255 0.0434142 0.200223 0.0166882 0.222907 -0.141579 0.132063 -0.0257338 -0.11467 0.00600287 -0.0197541 -0.0985864 -0.115893 -0.105403 -0.0889942 -0.101246 -0.087257 -0.0849871 -0.0687215 -0.131137 -0.136699 -0.128052 -0.110633 -0.147307 -0.138511 -0.141782 -0.127253 -0.126248 -0.115366 -0.151 -0.144205 -0.142312 -0.141234 -0.134318 -0.146492 -0.147863 -0.150872 -0.15029 -0.145786 -0.152855 -0.15341 -0.148136 -0.14041 -0.149069 -0.141673 -0.154946 -0.153999 -0.154928 -0.152267 -0.153948 -0.155622 -0.155764 -0.155193 -0.156531 -0.157351 -0.152353 -0.157291 -0.157172 -0.158137 -0.157887 -0.157965 -0.157827 -0.157834 -0.157779 -0.157764 -0.157747 -0.157737 -0.157749 -0.157741 -0.157752
internal_weight=0 6376.42 2494.97 3033.25 2258.04 1848.02 835.793 1328.41 2197.46 702.741 998.158 519.603 701.288 410.023 236.932 397.399 3343.16 330.256 1496.17 650.993 305.342 535.829 1347.5 440.659 238.195 477.747 201.796 320.597 3283.55 347.165 270.308 1232.44 154.07 148.675 623.469 598.65 553.822 309.885 170.351 179.36 169.024 187.43 608.967 523.482 429.626 185.068 2684.9 794.054 712.515 210.252 243.937 155.046 1890.84 494.932 464.283 244.559 170.375 142.746 502.263 407.443 445.003 388.298 373.55 1395.91 311.943 148.924 299.041 119.603 303.164 179.437 1083.97 407.493 351.991 298.889 295.53 163.019 676.474 565.407 111.067 238.747 239.488 210.665 496.996 182.619 184.098 151.618 439.309 365.505 256.206 194.375 130.447 125.98 121.418
internal_count=164456 138467 25989 59416 22030 18609 13458 14757 45958 11706 9488 3852 13749 3421 3959 5850 79051 5269 32209 5876 5856 11071 29454 9354 3434 4162 3404 2800 77794 3612 5640 27251 3084 2755 13143 12651 11679 6416 3714 3643 3502 3816 14108 12225 9149 3792 65143 19042 17093 5011 5263 3301 46101 12077 10923 5357 3737 3410 12082 9973 10702 9154 8972 34024 7357 3399 7094 2860 7409 4234 26667 10058 8705 7156 7311 3958 16609 13859 2750 5844 5928 5050 12181 4453 4544 3735 10899 9086 6383 4849 3249 3141 3024
is_linear=0
shrinkage=0.151134


Tree=3
num_leaves=94
num_cat=0
split_feature=193 189 11 11 299 194 299 193 70 299 245 161 299 245 54 276 69 209 70 111 299 151 426 438 31 31 233 11 154 193 151 203 71 305 173 420 151 158 11 151 151 31 339 158 11 286 193 193 111 339 132 323 194 69 445 305 279 193 111 125 222 125 299 240 158 111 379 72 244 315 161 209 434 219 111 54 125 419 342 184 445 194 132 31 222 151 71 233 193 71 438 72 343
split_gain=3772.6 600.498 443.24 259.134 226.059 193.046 161.838 121.679 109.424 103.135 138.045 91.029 83.5578 119.813 70.9766 67.348 58.2201 53.8916 51.6178 41.3923 39.1627 38.023 35.4358 34.3146 32.4617 32.4373 32.3505 30.906 28.167 27.3456 24.5571 23.9448 21.6606 21.017 20.1024 18.4389 18.0324 17.2835 14.8909 12.9013 11.4711 10.2897 13.3112 9.21288 8.60242 6.60379 5.71535 5.09106 3.92081 3.7509 3.37016 3.11444 3.03484 2.85413 2.76104 2.13952 2.67888 2.09812 1.80571 1.48376 1.39368 1.34376 1.7143 1.81275 1.62559 1.1168 0.916206 0.661281 0.552064 0.520354 0.464074 0.557811 0.455306 0.589066 0.686549 0.445533 0.290839 0.593569 0.285629 0.268289 0.0948039 0.0944366 0.0795034 0.0600452 0.01238 0.000176919 0.000149981 0.000124031 9.2907e-05 7.17503e-05 2.16592e-05 1.13486e-05 9.4679e-06
threshold=43.500000000000007 856.42000000000019 204.02000000000001 251.13500000000002 1.0000000180025095e-35 -10.499999999999998 1.0000000180025095e-35 27.500000000000004 1731.3850000000002 -1.0000000180025095e-35 1117.1100000000004 -469.70499999999993 -1.0000000180025095e-35 436.95500000000004 2979.3350000000005 12678.420000000002 1.0000000180025095e-35 1225.0450000000003 1731.3850000000002 -1430.9999999999998 1.0000000180025095e-35 639.28500000000008 -1.7999999999999978 -24509.791999999987 522.29000000000008 784.46000000000015 1256.575 813.10500000000013 380.82500000000016 1.0000000180025095e-35 1014.6450000000001 60.000000000000007 6.5000000000000009 4.5000000000000009 479.50000000000006 6.9156102106569349e-12 639.28500000000008 587.16999999999928 1285.3550000000002 287.38500000000005 1.0000000180025095e-35 784.46000000000015 -5409.0199999999977 587.16999999999928 908.87500000000011 15.500000000000002 96.500000000000014 102.50000000000001 -790.49999999999989 609.64999999999975 267444.00000000006 2637.8600000000006 -13.499999999999998 1.0000000180025095e-35 1.5415855746884318e-13 9.5000000000000018 305.75499999999994 102.50000000000001 -576.99999999999989 1205.5000000000002 -1.0000000180025095e-35 1205.5000000000002 90113.125000000015 6.5000000000000009 1.0000000180025095e-35 -1551.4999999999998 -35.189999999999976 2486.0000000000005 216.34500000000003 -1.4999999999999998 -590.07499999999993 749.17500000000007 1.0000000180025095e-35 3.5000000000000004 -790.49999999999989 1.0000000180025095e-35 2740.5000000000005 63.342000000000091 -7.4999999999999991 125.50000000000001 1364.7989999999988 -4.4999999999999991 106977.60000000002 11424.325000000003 504.3900000000001 639.28500000000008 7.5000000000000009 495.52500000000003 122.50000000000001 7.5000000000000009 3376.4795000000026 1099.3400000000001 1.0000000180025095e-35
decision_type=8 10 2 2 10 8 8 10 2 10 10 10 8 8 2 8 2 10 2 8 10 10 10 10 2 2 10 2 10 10 8 8 2 10 10 10 8 10 2 10 10 2 10 10 2 8 10 10 8 10 8 8 10 2 10 10 10 10 8 8 8 10 10 10 10 10 10 2 10 8 10 10 10 10 10 2 10 8 10 10 10 10 10 2 10 10 2 10 8 2 10 2 10
left_child=1 7 4 11 5 15 9 8 19 23 14 -3 46 -14 18 -2 35 -18 25 -1 27 -15 24 31 -12 26 28 30 -11 -21 -5 -4 -23 -24 -10 -13 -31 -9 41 -29 -25 42 -35 58 -16 53 -7 -27 -44 -50 65 54 -42 61 -43 56 -40 -57 69 60 -54 62 63 64 -8 -47 -59 -68 -65 -6 83 79 73 76 -75 -62 77 -63 -74 -72 82 -70 -80 86 -69 -84 -61 -83 -78 -87 -91 -88 -92
right_child=2 3 6 20 43 12 45 37 34 10 22 16 13 21 44 -17 17 -19 -20 29 -22 32 33 40 -26 47 -28 39 -30 36 -32 -33 -34 38 -36 -37 -38 -39 55 -41 52 51 48 -45 -46 50 -48 -49 49 -51 -52 -53 59 -55 -56 57 -58 66 -60 70 75 72 -64 68 -66 -67 67 84 81 -71 71 -73 78 74 -76 -77 88 -79 80 -81 -82 87 85 -85 -86 89 91 -89 -90 90 92 -93 -94
leaf_value=0.096596954233238094 0.25467401632570863 -0.016448109309298162 -0.11277230346230142 0.060702267432443592 -0.13489541918792317 -0.074895902865713002 -0.14637916598010001 0.04519425509525412 0.21635230507523487 0.12116992098813113 0.038631537921634297 0.03064986206719288 0.15111262890207788 0.040136969000009765 -0.051837260055219214 0.088069716998353739 0.2266827042115076 0.11497056959135968 0.11013611853252026 0.22515097504810261 -0.12668784917894124 0.004208177598113573 -0.018285968245947283 -0.089689603372542281 -0.091005666269205684 -0.036010092496372298 -0.056883758577871403 -0.02920122750580266 -0.00053144394129052625 0.19160042230669735 -0.036422771893405849 0.016645588894050038 -0.095919973425045713 -0.019478732396812973 0.26597591651795777 0.10833009220507997 0.12707439628912934 0.12336346773918509 -0.089058322021574071 -0.11185308208135759 -0.11503078697510272 -0.079324785084751395 -0.065875969730836217 -0.071415860408976406 -0.11873250800570272 -0.11694037329929513 -0.13453211046883903 -0.095272135647080924 -0.079259604295159242 -0.12640394730316337 -0.090170287868783006 -0.13536594948336275 -0.11481919170525869 -0.11653866076764473 -0.11972434328744629 -0.11146627507713194 -0.13234333678667887 -0.12855844274166939 -0.11593715894127597 -0.15719014924799918 -0.13495827525181947 -0.13493291783617839 -0.11491876457622797 -0.13786584678050118 -0.10964694000470525 -0.14712100929986482 -0.13605844623029295 -0.1575388041136877 -0.15015866092825142 -0.15408377290710062 -0.14328241691387353 -0.13362871339573137 -0.14409442912751402 -0.1257926541675691 -0.14849071287314775 -0.15436861045524153 -0.1571369221353025 -0.15698552003426619 -0.15192833391808802 -0.15716295907457081 -0.14969174733078683 -0.15727833795152488 -0.15721290578278047 -0.15130600883095585 -0.15435736694184704 -0.15703161169234267 -0.15687584675265537 -0.1569919950037976 -0.15686437397645212 -0.15693433700618642 -0.15687266099560118 -0.15696406295092619 -0.1567993687858654
leaf_weight=194.1416091285646 95.966136734932661 131.71138368546963 70.941878918558359 132.32897201552987 57.881327144801617 75.845580264925957 56.127329416573048 127.62141755595803 435.89756595343351 89.99614616855979 82.922621760517359 149.48828803375363 129.13481251522899 148.8891947157681 77.569184895604849 131.17695480957627 154.98860047757626 271.29768668487668 114.96139647066593 185.18949176371098 92.80646625161171 77.666505970060825 62.534946404397488 103.44666727632284 94.286355048418045 65.842230513691902 73.983917813748121 95.454555578529835 83.966257911175489 174.35301368311048 107.98445471003652 60.505885671824217 135.35347541794181 76.216807793825865 325.85457819700241 130.92839633673429 228.66803318634629 130.84914964437485 56.520829103887081 78.705228302627802 75.19564151763916 70.090702991932631 85.725195784121752 69.974348966032267 101.18768494576216 54.747698057442904 71.13272001221776 66.60826974734664 67.813061740249395 89.322644390165806 70.316346161067486 103.86044884845614 53.436766777187586 68.402215540409088 86.115394942462444 58.472937557846308 77.358271162956953 67.569300144910812 73.060275286436081 60.267493266612291 54.051213566213846 54.646077990531921 50.20868431404233 54.284008353948593 53.991935111582279 57.334261778742075 56.64112888649106 60.960900399833918 64.619855374097824 72.986064314842224 54.159267939627171 57.931355737149715 59.17871917039156 53.260352950543165 71.033746268600225 53.992197092622519 50.307947859168053 56.915627170354128 89.96079283952713 77.064177978783846 63.040239077061415 56.648256253451109 50.141808860003948 53.45048338919878 51.574704304337502 78.816094148904085 94.86839335411787 88.585649233311415 66.110742371529341 70.957811288535595 76.629055984318256 51.333798736333847 84.822374701499939
leaf_count=1760 1316 1776 1857 2068 1437 1603 1540 1604 2672 1692 1795 1681 1700 2048 1496 2072 1218 2606 1835 1109 2091 1234 1209 2534 2282 1354 1647 1609 1612 1367 1798 1508 2655 1552 2255 1580 1861 1436 1341 1652 2046 1566 1850 1574 2281 1334 1823 1515 1445 2089 1663 2436 1448 1631 2051 1465 1963 1767 1691 1649 1452 1520 1392 1456 1472 1478 1504 1600 1774 1824 1480 1602 1684 1490 1988 1475 1388 1596 2528 2120 1790 1535 1366 1502 1384 2195 2696 2476 1882 1999 2180 1442 2437
internal_value=0 0.123711 -0.0831856 0.0473173 0.0009259 0.038809 -0.104746 0.180741 0.196807 -0.0831003 -0.0631774 0.098905 -0.00378758 0.0261353 -0.00806838 0.158459 0.120404 0.155587 0.021391 0.157107 -0.0379449 -0.0184585 -0.0929452 -0.124695 -0.0303436 -0.00542901 0.0268273 -0.0180741 0.0624284 0.177079 0.0170593 -0.0532008 -0.0594135 -0.103305 0.23758 0.0669193 0.154989 0.0847669 -0.108579 -0.0665527 -0.136603 -0.092769 -0.0745819 -0.118734 -0.0897042 -0.143177 -0.103758 -0.0658125 -0.0918748 -0.106058 -0.116107 -0.115083 -0.14368 -0.146657 -0.101597 -0.129917 -0.114069 -0.137103 -0.134971 -0.147208 -0.134784 -0.148183 -0.141142 -0.14466 -0.128369 -0.132379 -0.143435 -0.149377 -0.151451 -0.145597 -0.151676 -0.145981 -0.151411 -0.147135 -0.138765 -0.144658 -0.151698 -0.146184 -0.154038 -0.151434 -0.155182 -0.154965 -0.155949 -0.155821 -0.156081 -0.156949 -0.15699 -0.157104 -0.156982 -0.156907 -0.156865 -0.156907 -0.156834
internal_weight=0 3148.27 5582.9 1345.69 1139.07 865.165 4443.83 1802.57 1544.1 2842.75 1922.1 838.414 638.022 491.044 674.115 227.143 706.703 426.286 495.358 782.352 507.28 361.909 1247.99 920.645 177.209 380.397 247.946 414.473 173.962 588.211 240.313 131.448 213.02 1070.78 761.752 280.417 403.021 258.471 1008.24 174.16 789.197 579.144 319.078 273.902 178.757 1601.09 146.978 132.451 242.861 157.136 182.398 260.067 685.751 1418.69 156.206 429.098 133.879 295.219 203.928 610.555 161.48 1350.29 424.466 374.257 110.119 112.082 236.746 169.177 264.138 130.867 449.075 189.155 925.821 352.274 124.294 108.043 227.98 111.562 573.547 131.223 514.368 209.854 451.328 259.92 112.536 361.367 206.47 145.234 116.419 311.225 232.409 146.202 161.451
internal_count=164456 32143 132313 18079 20977 14451 111336 14064 11024 67542 42731 8861 11063 7637 13432 3388 7085 3824 9655 6097 9218 5937 29299 24811 4077 7820 4951 7127 3304 4337 3866 3365 3889 25222 4927 3261 3228 3040 24013 3261 21446 12989 6936 6526 3777 43794 3426 2869 5384 3534 4475 6053 18912 39319 3617 11024 3304 7720 4952 16866 4375 37688 11645 10253 3012 2812 6255 4488 7241 3261 12491 5202 26043 9864 3478 2927 6386 3116 16179 3600 14495 5785 12705 7289 2984 10177 5787 4011 3270 8811 6616 4138 4617
is_linear=0
shrinkage=0.151134


Tree=4
num_leaves=93
num_cat=0
split_feature=49 18 245 156 260 151 69 151 69 155 233 197 169 426 428 176 156 426 156 156 18 71 151 124 428 155 169 320 156 71 260 197 155 18 188 426 356 62 62 156 140 193 430 173 205 185 151 421 193 241 188 245 185 155 269 344 205 283 155 233 81 151 83 306 437 173 235 185 283 213 169 426 430 439 213 437 237 57 20 71 233 18 193 459 185 18 342 18 81 459 155 459
split_gain=3032.2 1223.51 330.149 241.745 202.097 135.24 126.926 101.264 92.0249 79.5843 76.7361 65.5923 61.867 52.1002 50.3798 48.2143 46.5765 44.1222 39.5711 37.7137 37.1356 34.986 34.6758 29.5025 28.3627 27.8608 22.2354 22.0913 21.289 19.0795 17.2406 16.9721 15.0854 11.0307 10.6088 8.70126 8.00549 7.03999 7.02421 6.33065 8.91236 6.02579 5.14273 4.08108 3.52426 3.36443 2.9533 2.66048 2.41459 2.23737 1.87688 1.77076 1.71965 1.34539 1.33715 1.23629 1.009 0.866915 1.13604 1.4331 0.607817 0.568098 1.51172 0.714362 0.554838 0.427754 0.426207 0.207154 0.191735 0.436161 0.175279 0.357121 0.128562 0.353229 0.102939 0.0294176 0.0577523 0.0225571 0.0156509 0.00179876 0.000778257 0.000333294 0.000161533 5.83268e-05 4.20884e-05 2.5132e-05 1.98937e-05 1.81314e-05 9.26559e-06 6.4655e-06 4.68431e-06 1.65438e-06
threshold=1.0000000180025095e-35 2904.3950000000004 375.09500000000008 14343.500000000002 2695.0550000000007 1198.2150000000004 1.0000000180025095e-35 1401.7350000000001 1.0000000180025095e-35 3948.2649999999971 325.98500000000007 -12144.014999999998 202056.50000000003 -0.99999999999999978 173.33400000000017 627.50000000000011 18118.325000000004 1.0000000180025095e-35 1253.7100000000003 28233.560000000001 188.13500000000002 4.5000000000000009 1014.6450000000001 423.31500000000005 463.15349999999995 586.9000000000002 202101.50000000003 1129.4950000000001 12592.590000000002 6.5000000000000009 2695.0550000000007 -553.50999999999988 -7190.5649999999978 18982.590000000004 3155.2850000000003 -0.39999999999999969 1.0000000180025095e-35 16694.150000000005 7938.6350000000011 9431.8900000000012 211140.00000000003 50.500000000000007 1.0000000180025095e-35 755.50000000000011 -545.49999999999989 131.50000000000003 287.38500000000005 1937.1910000000018 78.500000000000014 7.5000000000000009 864.08000000000015 1744.7550000000003 68.500000000000014 -7190.5649999999978 253368.00000000003 3.5000000000000004 -1626.9999999999998 1.8100000000000007 93604.970000000016 45.835000000000008 11730.310000000003 1014.6450000000001 11788.650000000001 -2.4999999999999996 4834.2410000000009 479.50000000000006 213.02500000000003 286.50000000000006 17.904999999999976 750283349.50000012 202103.50000000003 0.30000000000000021 -2161.1649999999904 -8.2082826319842777e-17 1095787491.0000002 3691.8465000000033 1614.5550000000001 1.0000000180025095e-35 1.0000000180025095e-35 4.5000000000000009 325.98500000000007 9549.4150000000027 78.500000000000014 -0.099999999999999825 77.500000000000014 25251.455000000005 1.0000000180025095e-35 28902.810000000001 69094.210000000006 -1.0325556551596946e-16 10505.805000000006 2.8528124092282427e-16
decision_type=2 2 8 8 10 10 2 10 2 10 8 8 10 10 10 10 10 10 10 10 2 2 8 8 8 8 10 8 10 2 8 8 8 2 10 10 10 2 2 10 10 8 10 10 8 10 8 8 8 8 8 10 10 10 10 10 10 8 10 10 2 8 2 10 10 8 10 10 8 10 10 10 10 10 10 10 10 2 2 2 10 2 10 10 10 2 10 2 2 10 10 10
left_child=1 3 9 7 11 13 30 8 18 12 -8 -5 -3 -4 21 -10 24 27 -1 23 26 -9 -14 -15 29 -25 -13 -6 -11 33 34 -17 -21 -7 -2 37 -19 42 39 40 -31 -34 -18 -37 54 47 48 -46 -32 -40 -48 -45 -50 -53 56 57 -36 58 59 -52 -58 62 -61 -63 70 -59 -55 68 69 -67 72 -72 73 78 75 80 -77 79 -65 -74 -70 -81 -82 86 -83 -86 -84 -85 90 -87 -89 -92
right_child=6 2 5 4 17 16 10 14 15 28 -12 20 22 19 -16 31 35 36 -20 32 -22 -23 -24 25 -26 -27 -28 -29 -30 38 46 -33 41 -35 44 43 -38 -39 49 -41 -42 -43 -44 51 45 -47 50 -49 52 -51 55 53 -54 66 -56 -57 60 65 -60 61 -62 63 -64 64 -66 67 -68 -69 74 -71 71 -73 77 -75 -76 76 -78 -79 -80 81 82 84 83 87 85 89 -88 88 -90 -91 91 -93
leaf_value=0.092538850529062203 -0.076700592085369626 0.03151100884341667 0.11148876260252184 0.17448091475129598 0.077644843244907238 0.0052021212249743834 0.11844946512679465 0.10818712956221371 0.17046959370033735 0.039654786391417035 -0.093627091652645211 0.07284537180545439 0.20596482901888966 -0.055382031955088944 0.16746980967513747 0.21435244455259933 -0.038460584535174439 -0.037961970328179169 0.17089828584551839 -0.012357091783714948 0.028570471541444903 -0.0015026308570362306 0.09581836924266493 0.08433572945908957 0.016356754301857682 -0.0082407729665312998 0.14150347933874727 -0.021738472834695648 -0.053714827294810544 -0.012114027182524457 -0.099448097202579355 0.27484380988884843 -0.057621653130737929 -0.074336775095141069 -0.12713206076415448 -0.091552816094976133 -0.10120347550549276 -0.12836007636420937 -0.10174223196471714 -0.1132399876626704 -0.093108868414452928 -0.11612241567276363 -0.098135350641340283 -0.11562789336845461 -0.071274153933323134 -0.13461662996694526 -0.12295005157042165 -0.11745011597726478 -0.11836200393530265 -0.14563829845212284 -0.12310083280359045 -0.12462814117798032 -0.15275335171126372 -0.14077940347404477 -0.11851916958041984 -0.12572431158019706 -0.15581341419508388 -0.14204888712825317 -0.12793901637151328 -0.11971777656606666 -0.13632173476826343 -0.13320834425607181 -0.15285101390596936 -0.15644361516436059 -0.14009716885993509 -0.15626379831478052 -0.15701535546493267 -0.14392126117748222 -0.15673996772019247 -0.13730771618034027 -0.13849457052216693 -0.15629883659705826 -0.15730990396552649 -0.13926672504783033 -0.14933666055538014 -0.15628525305875224 -0.14924786801802967 -0.15281598777744856 -0.15286345101097926 -0.15663046619891688 -0.15645600053707839 -0.15631620122290862 -0.15630555013892436 -0.15619437247635551 -0.15625497740957936 -0.15616179741703679 -0.15617425049893516 -0.15610733497507029 -0.15614961784834591 -0.15608102972714658 -0.15607169987371472 -0.15603116405259082
leaf_weight=291.6360738761723 119.93813809938729 133.99697209522128 83.30841089040041 264.18050851300359 104.60205907747149 95.924142392352223 69.608210982754827 131.40909505449235 360.08786465972662 149.68102985993028 88.541082410141826 204.75330740213394 148.44255105778575 105.13928727060556 130.31614514626563 204.68531592935324 69.263509422540665 83.015110861510038 297.23239769972861 92.762122813612223 188.41776541806757 134.29441474936903 116.53676846437156 147.636638533324 109.87362970970571 149.38709493167698 227.40188932791352 99.859543895348907 88.911786995828152 58.9374232981354 50.955250525847077 219.612320240587 75.406061328947544 68.09974735789001 67.342478640377522 67.565342830494046 101.76866310276091 62.721196427941322 54.175370886921883 64.0299705080688 65.538405887782574 86.182595742866397 62.980999113991857 102.59536037035286 57.141220182180405 80.816820515319705 69.386067423969507 56.861433574929833 58.055762259289622 51.959954593330622 52.726352939382195 88.486519513651729 77.598560471087694 81.278488343581557 67.732886251062155 54.115779854357243 106.69984411820769 83.21333621814847 74.750648450106382 52.497628379613161 55.576203214004636 51.651535389944911 78.464948747307062 75.184147972613573 83.849763244390488 66.461419906467199 67.685144800692797 49.040957035496831 68.619462786242366 47.569211516529322 50.788841994479299 52.161579571664333 48.196216618642211 43.925690026953816 63.90875543281436 68.208301365375519 43.702390803024173 44.413277700543404 44.338374543935061 55.510731158778071 45.352267391979694 61.018225518986583 57.737810887396336 47.514888767153025 47.170937612652779 42.736254563555121 48.497964968904853 52.464842900633812 45.307595737278461 48.139645656570792 44.509673995897174 47.58295301347971
leaf_count=2192 2052 1910 1609 1478 1477 1748 1009 1750 1991 2412 2256 1536 1892 1917 1547 1386 1695 1348 2420 1841 1627 2609 1795 1953 1930 2230 1463 1743 1632 1448 1288 1525 1091 1578 1694 1668 1990 1723 1442 1610 1715 1941 1596 2559 1423 1993 1877 1311 1595 1427 1438 2510 2351 2206 1695 1682 2683 2536 2381 1532 1479 1574 2375 2336 2643 2117 1947 1561 2051 1496 1604 1655 1352 1359 1984 2164 1408 1421 1405 1684 1404 1920 1820 1528 1502 1378 1561 1708 1465 1574 1457 1568
internal_value=0 0.0569884 -0.0202652 0.121682 0.0714847 -0.0516858 -0.132022 0.157828 0.177245 0.0739094 -0.000283205 0.111411 0.115202 -0.00110016 0.090498 0.211144 -0.0836419 -0.0192674 0.132091 -0.0153871 0.0845617 0.0527467 0.157523 0.0134203 -0.0526127 0.0377747 0.108974 0.0291058 0.00486053 -0.0691344 -0.139437 0.245662 -0.0609356 -0.027821 -0.117006 -0.112918 -0.0727919 -0.0866587 -0.0921331 -0.0746233 -0.054759 -0.0888228 -0.0668805 -0.125479 -0.126828 -0.111028 -0.145686 -0.0943055 -0.127498 -0.123232 -0.147374 -0.13222 -0.138035 -0.139389 -0.13718 -0.148247 -0.142684 -0.148893 -0.145866 -0.147303 -0.149138 -0.148753 -0.139569 -0.150358 -0.151629 -0.152359 -0.148157 -0.153437 -0.154061 -0.148356 -0.153204 -0.147515 -0.154351 -0.150856 -0.155088 -0.155734 -0.153537 -0.155997 -0.155116 -0.156463 -0.156271 -0.156303 -0.156188 -0.156153 -0.156212 -0.156165 -0.156246 -0.156111 -0.15609 -0.156119 -0.156071 -0.156051
internal_weight=0 5591.78 2548.51 3043.27 1274 1910.94 2967.59 1769.27 1373.25 637.569 158.149 884.753 398.976 739.822 396.02 784.386 1171.12 389.245 588.868 656.514 620.573 265.704 264.979 402.163 568.539 297.024 432.155 204.462 238.593 458.665 2809.44 424.298 254.351 164.024 612.109 602.577 184.784 194.966 294.641 188.506 124.476 161.589 132.245 407.611 492.171 194.819 2197.33 114.003 186.61 106.135 2010.72 340.046 135.654 237.45 297.351 1941.33 229.619 1887.22 1007.52 932.774 162.276 880.048 130.963 749.085 697.434 879.692 148.964 796.478 747.438 114.031 613.584 102.95 510.634 163.448 633.407 569.498 111.911 347.185 119.523 302.772 457.587 254.576 388.968 343.616 199.065 138.047 106.236 237.38 189.865 90.8759 144.557 92.0926
internal_count=164456 79107 51025 28082 12662 41384 85349 15420 9514 9641 3265 6104 5597 12582 5906 4902 28802 6558 4612 10973 4626 4359 3687 6100 12898 4183 2999 3220 4044 10968 82084 2911 4873 3326 14330 15904 3338 5014 7642 4773 3163 3032 3291 10890 12278 4727 67754 2734 5234 2869 62520 9222 3946 6663 7551 60643 5856 58961 31133 28752 4162 27314 3907 23407 21833 27828 4153 25292 23731 3613 19190 3259 15931 5100 20118 18134 3572 10831 3741 9410 14562 8058 12511 11107 6374 4454 3381 7726 6198 2952 4733 3025
is_linear=0
shrinkage=0.151134


Tree=5
num_leaves=96
num_cat=0
split_feature=192 22 428 28 194 331 240 22 22 298 298 28 71 136 265 439 239 240 165 298 95 331 192 231 231 129 413 298 298 147 71 364 22 240 192 409 305 194 240 431 305 192 413 109 298 430 431 237 147 192 129 412 189 189 165 184 413 192 436 189 298 459 95 256 412 237 184 123 355 413 355 298 172 439 407 190 189 340 123 192 267 172 407 24 24 24 24 24 136 459 172 1 172 165 339
split_gain=2206 370.572 358.028 237.619 222.6 125.72 106.483 102.596 91.7221 75.193 82.3375 68.6612 66.86 65.7398 56.3848 51.5244 41.4841 39.5891 39.0124 38.4841 37.51 34.4733 37.7788 33.725 23.4697 22.1461 20.4974 19.2892 18.9111 18.4213 18.3121 16.6299 14.6674 14.095 13.4805 10.9209 9.61281 9.57658 9.46193 9.273 7.84521 7.18521 6.99982 6.7046 6.49292 5.99016 5.92333 5.28982 4.61848 3.74403 4.29148 3.42067 2.97533 2.89928 2.85866 2.09698 1.89724 1.8278 1.49689 2.16054 1.47161 2.88436 1.46815 1.42603 1.59454 1.27399 0.908515 0.721474 0.690199 0.406064 0.448774 0.400167 1.03263 0.477876 0.340806 0.28049 0.232397 0.212579 0.179473 0.146995 0.0886848 0.0218017 0.0216032 0.000840137 0.000421129 0.000317115 0.000153252 9.6799e-05 3.16176e-05 2.99471e-05 1.185e-05 6.82299e-06 5.05034e-06 4.12687e-06 9.00796e-07
threshold=43.500000000000007 -1.0000000180025095e-35 357.50000000000006 2711.1700000000005 -17.499999999999996 1.0000000180025095e-35 4.5000000000000009 14453.380000000001 26956.970000000005 1.0000000180025095e-35 -1.0000000180025095e-35 2711.1700000000005 6.5000000000000009 4944.7350000000015 8654.5150000000012 0.099999999999999964 1.0000000180025095e-35 7.5000000000000009 63.500000000000007 1.0000000180025095e-35 6.5000000000000009 1.0000000180025095e-35 19.500000000000004 2389.0149999999971 -573.75999999999829 322.57500000000005 1.0000000180025095e-35 1.0000000180025095e-35 -1.0000000180025095e-35 636.50000000000011 8.5000000000000018 3.1350000000000002 66098.885000000024 5.5000000000000009 19.500000000000004 30.600000000000566 4.5000000000000009 -2.4999999999999996 8.5000000000000018 1.2064915072396998e-11 8.5000000000000018 65.500000000000014 -3.9999999999999969 8.0000000000000018 -63905.624999999993 -1.0000000180025095e-35 3.9113317688982749e-10 250.99000000000004 924.50000000000011 110.50000000000001 181.81500000000003 -5371.2359999999944 3042.8900000000008 34625.100000000006 55.500000000000007 47.500000000000007 -8.299999999999967 85.500000000000014 183.89950000000348 14289.465000000002 -63905.624999999993 -0.19999999999999962 35.500000000000007 1.0000000180025095e-35 1520.3349999999975 1424.8650000000002 68.500000000000014 -8605.0699999999979 -1.0000000180025095e-35 1.4000000000000019 -1.0000000180025095e-35 36393.500000000015 1385.5000000000002 -1.0000000180025095e-35 0.30000000000000587 38734.665000000008 14289.465000000002 3.5000000000000004 -3105.5599999999995 204.50000000000003 -41469.965000000004 4494.5000000000009 -9.2583837356667895e-16 1.5000000000000002 6.5000000000000009 6.5000000000000009 4.5000000000000009 4.5000000000000009 10023.030000000001 -0.19999999999999962 1385.5000000000002 202105.50000000003 1894.5000000000002 49.500000000000007 993.09500000000014
decision_type=8 2 10 2 8 10 10 2 2 8 10 2 2 8 10 10 10 10 10 10 2 10 10 8 8 8 10 10 8 10 2 8 2 8 10 8 8 10 10 8 8 10 10 8 10 10 8 10 10 8 8 10 8 10 8 10 8 10 10 10 10 10 2 8 10 8 10 10 8 10 10 10 8 10 10 10 8 8 10 10 10 10 10 2 2 2 2 2 10 10 10 2 10 10 8
left_child=1 6 3 4 -2 8 -1 9 13 10 44 -4 23 20 15 18 -13 -18 21 24 39 22 29 -12 -6 38 31 28 48 -8 32 -15 37 -26 -10 45 -36 -30 40 -3 -14 -37 -27 53 -5 -35 51 -28 -9 50 -32 -34 -44 -21 58 62 -51 -46 69 -60 61 -50 -29 64 -58 -53 -59 77 -63 70 -11 79 -73 75 76 82 -62 -65 81 80 -57 86 -74 -82 -71 -68 -78 -84 -85 -88 -90 -89 -91 94 -92
right_child=2 5 11 7 19 -7 14 27 34 54 12 16 25 26 -16 -17 17 -19 -20 43 -22 -23 -24 -25 33 42 47 55 30 -31 49 -33 46 35 36 41 -38 -39 -40 -41 -42 -43 52 -45 57 -47 -48 -49 60 56 -52 65 -54 -55 -56 71 63 66 59 -61 74 68 -64 67 -66 -67 85 -69 -70 84 -72 72 73 -75 -76 -77 78 -79 -80 -81 83 -83 87 88 -86 -87 89 91 90 92 93 -93 -94 -95 -96
leaf_value=0.22388454720833148 0.17589366697025177 0.021594657187748889 0.15982679137378258 -0.074836617293835908 0.050288491678975512 0.15027478010687759 0.080817369049511034 -0.10143269731307371 -0.010798342469947623 -0.15242947616754773 0.08369987234726714 -0.069540088348447923 -0.043025143465773984 0.062491008270322383 0.041756723076940616 0.19155091322296802 0.09676697556120599 -0.013604027624850665 0.16946886290808552 -0.10413613458968442 0.1254853995780873 0.15329131500638771 0.033628475827520064 -0.022020616665505293 0.02174594327701938 -0.051077797430721252 -0.060634565818956529 -0.14087927877465942 -0.011151322226917877 0.13326715791731433 -0.083581028333132412 -0.011039329313539289 -0.084687073327086082 0.0058447901448238516 -0.09907794050986965 -0.048672899784355975 -0.040091189468239315 -0.079415504225362324 -0.072052720217278599 0.068981016726050184 0.029914886781534124 -0.11364558978555302 -0.087901364319287176 -0.062243942017798724 -0.11147105017866088 -0.05019880918774209 -0.067540238325337607 -0.014137236516784928 -0.097590126428762719 -0.10739916863911948 -0.13399084670471506 -0.11438554287630349 -0.13083151782934024 -0.1485668940858097 -0.10128724984051428 -0.14775316524428092 -0.14032714304685528 -0.13136044675860584 -0.14711664738611827 -0.10134430129337617 -0.14068777458104267 -0.12824080475102598 -0.10385339381216159 -0.14359052922425009 -0.10478643148742825 -0.14209406606142255 -0.15610829724313452 -0.12943097251701954 -0.1533499220878905 -0.15618904501926997 -0.13011719777364494 -0.12370691955575548 -0.15139190777515252 -0.13462874004087896 -0.13641183363115658 -0.14077107378784237 -0.15578759171816989 -0.15631132620767518 -0.14353244136922816 -0.14496863009133248 -0.1561973898148612 -0.15153493630327011 -0.15569919971750409 -0.15555943268043343 -0.15554634669567494 -0.15554464676636146 -0.15557985124629781 -0.15546046653357493 -0.15548199091337839 -0.15546249119813796 -0.15535202532780867 -0.15538081002904641 -0.15538936076541876 -0.15542731828144937 -0.15538372516366475
leaf_weight=223.63593561947346 118.65147281251848 200.32092359289527 98.164322230964899 44.577260887250304 77.882138755172491 172.65155367553234 323.93081826716661 66.5358816832304 137.36732109263539 41.370209760963917 146.35930002294481 93.210466554388404 62.184229863807559 134.23439526185393 220.9769817776978 217.48699778690934 161.21348951011896 137.58262561075389 223.03839153423905 76.210306368768215 195.08727496862411 219.46576980501413 228.80880229920149 130.26506425999105 69.427985917776823 56.313893869519234 111.29198097065091 61.117156401276588 82.685556130483747 289.77971270680428 93.758554428815842 147.40400538221002 53.961438966915011 72.436564806848764 126.41341619566083 74.901134315878153 126.00816073827446 108.58329358883202 69.626247791573405 178.27253551036119 73.484694123268127 80.836238039657474 62.069832522422075 57.764822021126747 43.226002851501107 109.28413784503937 74.055482380092144 112.2589787133038 41.397868240252137 58.301040263846517 65.538825675845146 71.9610990062356 90.845746485516429 59.923966681584716 49.107031432911754 38.575553741306067 64.041902706027031 55.199642887338996 49.983620161190629 44.548365650698543 39.837194170802832 38.764513604342937 40.785326231271029 47.320013541728258 52.44846604578197 80.080545581877232 38.637588258832693 44.95511981099844 70.450269963592291 40.794171970337629 40.992922276258469 42.607979035004973 37.067178035154939 43.463590193539858 39.348379667848349 41.184241581708193 46.547861784696579 82.011812137439847 37.814168535172939 42.962749669328332 40.155239591374993 37.512289017438889 39.935834826901555 39.645999230444431 54.265374196693301 55.618808045983315 37.753666399046779 48.533691493794322 37.914620600640774 36.501596808433533 45.44393072091043 49.727107452228665 52.72906406968832 36.500418094918132 37.266837814822793
leaf_count=1066 1852 1849 936 1483 1572 1510 1718 2266 1834 1426 2468 1782 1379 1864 2056 1412 2326 2398 1463 2161 1915 1206 2172 2465 1171 1437 1365 2169 1912 1681 2514 1090 1466 1411 2590 1469 2535 2603 1657 1522 1710 1718 1516 1454 1329 2242 2082 1453 1399 1776 1899 1779 2517 1971 1549 1402 1918 1880 1678 1610 1408 1422 1441 1510 1608 2277 1307 1439 2603 1364 1421 1539 1376 1607 1433 1533 1643 2633 1391 1576 1330 1368 1426 1445 1983 2036 1371 1803 1402 1354 1724 1875 1986 1364 1405
internal_value=0 0.0811783 -0.0755791 -0.0895461 -0.0150918 0.0282793 0.125769 -0.106521 0.0139379 -0.0718007 -0.0499979 0.0467916 -0.0236275 0.0366401 0.113038 0.123521 0.0184859 0.0459459 0.112007 -0.0484818 0.0716494 0.0999393 0.0860418 0.0339151 -0.0257206 -0.0620273 -0.00311561 -0.12582 -0.116181 0.105583 -0.103625 0.0240067 -0.082166 -0.0402695 -0.0488981 -0.0530285 -0.0696319 -0.0499049 -0.0267613 0.043908 -0.00351738 -0.0823973 -0.0966303 -0.105387 -0.126816 -0.027859 -0.104199 -0.0372853 -0.138742 -0.123521 -0.104321 -0.117377 -0.113406 -0.123694 -0.134848 -0.146154 -0.132282 -0.138842 -0.140908 -0.125546 -0.143929 -0.131561 -0.12606 -0.137271 -0.124325 -0.12898 -0.146758 -0.145924 -0.144438 -0.149092 -0.141324 -0.149452 -0.145515 -0.14909 -0.149607 -0.151994 -0.151405 -0.151657 -0.153121 -0.153191 -0.154473 -0.154839 -0.154632 -0.155567 -0.155822 -0.155776 -0.155553 -0.155501 -0.155439 -0.155467 -0.155408 -0.15542 -0.155419 -0.155385 -0.155366
internal_weight=0 3588.43 4784.74 4294.57 797.319 1641.31 1947.12 3497.25 1468.66 1249.47 928.408 490.171 691.149 1078.87 1723.49 1502.51 392.007 298.796 1285.02 678.667 573.681 1061.99 842.519 276.624 484.768 414.525 505.189 2247.78 1524.9 613.711 979.703 281.638 471.327 406.886 389.789 337.458 252.422 191.269 205.295 378.593 135.669 155.737 209.229 193.899 237.259 181.721 280.059 223.551 545.193 508.376 159.297 206.003 152.916 136.134 321.062 722.887 349.078 192.682 271.955 94.532 478.657 150.613 101.902 290.777 116.49 152.042 149.456 174.287 109.215 177.423 82.3631 620.985 302.52 259.912 328.044 216.448 288.696 129.332 248.859 318.465 275.503 211.044 175.264 236.927 95.0595 94.2564 173.532 138.197 196.772 126.984 157.126 98.2608 89.2307 119.211 82.7108
internal_count=164456 32301 132155 124713 17021 19527 12774 107692 18017 34215 23184 7442 15149 11058 11708 9652 6506 4724 8240 15169 5286 6777 5571 4933 9583 10216 5772 73477 47060 3399 27416 2954 12119 8011 6959 6840 5125 4515 4746 3371 3089 3187 5470 5586 8035 3653 7604 2818 19644 15297 4413 5522 4033 4132 11031 26417 10884 6552 9482 3288 17378 5424 3610 9108 3526 4056 5223 5582 4025 6194 2847 22807 11159 9620 11954 8013 10521 4143 9113 11648 10072 7722 6480 8670 3347 3343 6354 5104 7340 4711 5895 3678 3340 4493 3129
is_linear=0
shrinkage=0.151134


Tree=6
num_leaves=98
num_cat=0
split_feature=297 131 28 441 414 257 28 69 299 441 345 244 400 16 21 161 280 414 117 429 111 244 1 1 299 297 251 427 235 16 297 299 1 184 415 432 28 454 414 409 278 244 69 273 377 437 280 201 353 212 161 353 299 244 184 269 316 80 353 28 82 207 417 409 439 410 235 235 212 438 255 204 342 441 110 437 353 235 201 273 414 298 429 285 210 460 204 353 297 353 299 299 438 353 16 28 298
split_gain=1552.69 777.247 593.993 131.044 124.913 123.843 108.335 93.3387 78.9638 67.469 52.8217 47.9206 46.4956 48.3512 46.0095 48.2055 43.5448 32.8053 30.6147 30.5887 29.577 28.6326 26.6819 25.6556 22.2593 36.3983 21.5585 19.7544 21.9996 20.0965 17.9841 19.1699 15.4526 15.4332 14.3923 12.2358 12.178 11.9683 13.2402 11.955 10.5698 8.28745 6.73851 6.63354 5.84165 5.56025 5.52564 5.50205 6.19001 5.30557 4.88032 5.07968 3.46139 3.3643 3.19561 3.32497 2.55564 2.22298 2.21791 1.7996 1.44767 1.39263 1.04934 1.00369 0.965454 1.50814 0.80976 0.72922 0.848827 0.65762 0.547007 0.695729 0.544059 0.495482 0.482962 0.385264 0.683904 0.245811 0.2272 0.222134 0.172569 0.0766517 0.0725537 0.0644288 0.0622422 0.0270372 0.0222567 0.00266154 0.000517059 0.000157777 7.27402e-05 6.27746e-05 4.95163e-05 2.56718e-05 5.43159e-06 4.70077e-06 1.45413e-06
threshold=15264.520000000002 1.0000000180025095e-35 4268.1800000000012 0.20000000000000009 -1.0000000180025095e-35 1.0000000180025095e-35 2711.1700000000005 1.0000000180025095e-35 -57125.059999999998 0.80000000000000038 3.5000000000000004 593.53500000000008 4301.0100000000011 -1.0000000180025095e-35 1.0000000180025095e-35 280.55500000000006 83.345000000000013 -2243.7049999999995 346.16500000000002 -496.78749999999815 -1307.9999999999998 216.34500000000003 202103.50000000003 202103.50000000003 -57125.059999999998 125825.36000000002 1.0000000180025095e-35 1.4076004715138919e-13 213.02500000000003 -316.99499999999995 57933.280000000006 1.0000000180025095e-35 202103.50000000003 151.50000000000003 30.599999999999845 5.3285872369905755e-12 12871.570000000002 366.75750000000022 2.2709999999999972 30.400000000000105 1.0000000180025095e-35 1145.2750000000003 1.0000000180025095e-35 114015.60000000002 1.0000000180025095e-35 114.25500000000024 1.5400000000000003 -1399.9999999999998 29024.990000000002 891506569.50000012 -1028.8699999999997 4133.5350000000008 35929.540000000015 1963.9250000000004 68.500000000000014 505401.20500000007 1542.6200000000001 7.5000000000000009 2346.0050000000006 19471.430000000004 1.0000000180025095e-35 60.000000000000007 44.096500000000049 30.100000000000016 0.15000000000000008 6.8662429437026971e-12 1.0000000180025095e-35 361.87000000000012 631072976.50000012 1.0000000180025095e-35 7.2500000000004556 -2069.4999999999995 -10.499999999999998 -0.69999999999999796 95013.000000000015 2252.639499999998 9927.715000000002 792.45000000000016 -1946.4999999999998 278704.80000000005 -700.18049999999982 66526.250000000015 5737.0984999999991 1.5000000000000002 307.36500000000018 80.78649999999972 -1154.9999999999998 1.0000000180025095e-35 52146.80000000001 4133.5350000000008 1.0000000180025095e-35 5575.1600000000008 2442.360000000001 9927.715000000002 -169.00499999999997 17665.070000000003 10275.725000000004
decision_type=8 10 2 10 10 10 2 2 8 10 8 10 10 2 2 10 10 10 8 10 8 10 2 2 10 8 10 10 10 2 10 10 2 10 8 10 2 10 10 8 10 10 2 10 8 10 10 10 8 10 10 10 10 10 10 10 8 2 10 2 2 10 10 10 10 8 10 10 10 10 10 8 10 10 10 10 10 10 8 8 10 10 10 8 10 10 10 10 10 10 10 10 10 10 2 2 10
left_child=1 2 3 4 14 7 8 11 -2 12 30 27 13 22 -1 20 18 -17 -9 -6 -16 35 44 -22 25 -8 40 28 29 -4 31 -10 -31 34 -23 -21 43 38 39 41 -24 -13 54 -15 45 -7 49 48 -27 66 53 -52 60 -38 55 57 -39 58 -26 -48 -32 -49 -55 79 70 -66 -14 68 -61 74 71 -56 -73 -74 -60 77 -77 80 -71 -62 -75 84 -78 -72 87 89 91 -82 -89 -85 -90 -80 -91 -92 -94 -95 -96
right_child=6 -3 5 -5 19 9 24 16 10 -11 -12 37 46 36 15 17 -18 -19 -20 21 23 33 26 -25 42 47 -28 -29 -30 32 52 -33 -34 -35 -36 -37 50 56 -40 -41 -42 -43 -44 -45 -46 -47 59 61 -50 -51 51 -53 -54 62 64 -57 -58 -59 69 67 63 -63 -64 -65 65 -67 -68 -69 -70 78 83 72 73 75 -76 76 82 -79 86 -81 81 -83 -84 85 -86 -87 -88 88 90 92 93 -93 94 95 96 -97 -98
leaf_value=0.14775194428264662 0.096257409684137443 0.44239597082252341 -0.019239473572253238 0.19015725011766718 0.084703212696134525 -0.011850696531008181 0.044112722302550311 0.031792804384294777 0.0067310147889566678 0.094269761983818451 0.03623353291637512 0.042425082390712916 -0.099613559262901316 -0.081782996813203043 0.059282815903589026 0.078180773859781505 -0.0039313282136813187 8.3957487365841365e-06 0.12990588229126318 0.022648293291707294 0.087209285574002052 0.038299886315850379 0.076038229625448608 0.14713581127881536 -0.11543699885753354 -0.04567479422603439 -0.038182910485360953 -0.060031428103695744 -0.044332546635580984 0.033528504699372533 -0.10860549850117975 -0.10268195608130207 0.11773531353998025 -0.045072909447719356 -0.025382152758775558 0.069766392347180087 -0.093092824530914137 -0.087716531003436363 -0.10555088839383679 -0.072194305094000807 0.0041971855457066474 -0.039414960240803647 -0.082830302102427658 -0.01337600257488674 -0.091383035244916797 -0.06854008396030993 -0.10447409766730854 -0.15511449156541326 -0.11736441188070246 -0.054817356442208254 -0.059361655983686847 -0.11772573979713696 -0.090573971481168219 -0.12240684152054149 -0.1262903384976132 -0.087669386703871199 -0.1392455041760611 -0.10034512044659032 -0.12275458937505261 -0.11912085515030149 -0.15408612311544925 -0.11946826860252729 -0.15390657437495128 -0.12225853006041153 -0.10624624557744632 -0.15076477494301588 -0.12624732267988786 -0.15607528188886347 -0.14723123931370755 -0.14123488311687735 -0.14775661540582932 -0.1275802165374762 -0.13050128595080318 -0.1421300791128193 -0.14539887811159838 -0.12920234499539351 -0.14545706597701763 -0.14155707462847891 -0.15529096191705674 -0.1397180924304936 -0.15649252329368404 -0.14696653728451695 -0.15488044346687455 -0.15524718253055877 -0.14964279420666632 -0.15023110417554567 -0.150636398798358 -0.15559415420469319 -0.15507254051609087 -0.15499082975015754 -0.1549768615721884 -0.15503614399922286 -0.15486848687956997 -0.15485660594496553 -0.15481642670263371 -0.15477922323739213 -0.15477203635298037
leaf_weight=256.94645768031478 68.047508388757706 104.08725030347705 83.625279314815998 195.64928680285811 171.37951417267323 77.333294400945306 38.287908604368567 115.41131802648306 63.904477221891284 63.335487192496657 79.178255317732692 58.279555272310972 53.346908438950777 66.331784470006824 305.84348525293171 249.94908951967955 157.65757127851248 240.70475936494768 196.03572756238282 339.84293301030993 336.96817499771714 180.96823728457093 99.500974209979177 316.40108048543334 72.927662219852209 41.10753389634192 127.92567236162722 78.745194906368852 84.933106020092964 119.20194046758115 52.755486030131578 85.53335509262979 85.467014407739043 182.3830285910517 146.83540973998606 199.95733269304037 55.902967937290668 43.576790504157543 70.919024903327227 85.297030927613378 88.282472213730216 54.873611778020859 45.999934360384941 63.258534993976355 77.899688137695193 80.822889029979706 44.627441888675094 62.1517224740237 83.174180453643203 55.561865324154496 81.897598322480917 58.316093487665057 65.575653886422515 44.247967367991805 41.829501077532768 37.8817526884377 44.368993556126952 38.546068120747805 41.354790553450584 52.604757335036993 49.411675116047263 41.9186901897192 53.19803374633193 60.980439577251673 33.982952551916242 35.579182703047991 51.003543127328157 41.689069448038936 45.985000792890787 43.092447744682431 41.072491152212024 33.14496186003089 36.826025571674109 34.537709575146437 44.842050110921264 58.088784173130989 32.069654576480389 56.222237477079034 35.776984117925167 48.902283208444715 34.284543389454484 37.919628012925386 44.64047609642148 32.673212453722954 55.650614693760872 32.479558870196342 34.38102033175528 33.533500853925943 63.097309306263924 60.361550828441978 33.35364799015224 57.69066540710628 32.230378970503807 34.521610701456666 32.063714070245624 37.310699360445142 35.538184793666005
leaf_count=1380 1457 713 1324 1607 1983 1276 1177 1705 1192 1344 1715 1376 1406 1428 2031 1256 2639 1689 2163 2718 2236 1862 1539 2051 2354 1504 2350 1850 1734 2052 1366 2242 1429 2170 1351 1773 1536 1306 1837 2215 1480 1552 1311 1369 1579 1556 1195 2531 2726 1286 2050 1863 2032 1420 1710 1454 1477 1527 1563 1748 1489 1589 1686 1874 1383 1479 1402 1459 1430 1712 1692 1398 1514 1388 1715 2350 1368 2353 1406 1288 1159 1608 1907 1305 2311 1387 1418 1299 2608 2522 1401 2371 1377 1480 1386 1626 1551
internal_value=0 0.0330688 0.0257043 0.0704042 0.0624028 -0.0267611 -0.113443 0.00714879 -0.0565989 -0.0581046 -0.0771454 -0.0239429 -0.0654172 -0.0485464 0.0888085 0.0783625 0.0607874 0.039831 0.0935486 0.0255018 0.098072 0.015839 -0.0190714 0.116229 -0.1324 -0.092255 0.00966662 0.00875663 0.0232698 0.0431859 -0.0981661 -0.0558934 0.0686921 -0.00983262 0.00977434 0.0401022 -0.0869799 -0.065305 -0.0495003 -0.0294698 0.0422637 0.00273677 -0.139754 -0.0483906 -0.0575066 -0.0408208 -0.113117 -0.11512 -0.0936523 -0.0925438 -0.104015 -0.0836358 -0.12092 -0.122648 -0.141612 -0.130308 -0.113713 -0.134689 -0.1387 -0.130908 -0.130305 -0.140756 -0.139603 -0.137491 -0.146193 -0.129016 -0.112631 -0.139318 -0.132232 -0.145298 -0.147473 -0.145161 -0.146423 -0.147478 -0.134535 -0.148604 -0.141573 -0.150858 -0.150725 -0.146939 -0.152294 -0.153359 -0.150941 -0.153262 -0.15419 -0.154265 -0.153924 -0.155261 -0.155052 -0.154945 -0.154944 -0.155134 -0.154883 -0.154867 -0.154817 -0.154816 -0.154793
internal_weight=0 5889.38 5785.29 3123.83 2928.18 2661.46 2296.43 1278.39 574.289 1383.07 506.242 809.288 1319.74 974.918 1706.81 1449.87 469.105 490.654 311.447 1221.37 959.213 1049.99 551.765 653.369 1722.15 266.64 315.709 451.973 373.227 288.294 427.063 149.438 204.669 510.187 327.804 539.8 423.153 357.315 269.369 198.45 187.783 113.153 1455.51 129.59 236.056 158.156 344.819 228.352 124.282 159.912 293.563 140.214 277.626 153.349 1409.51 406.493 87.9458 368.612 330.066 184.906 212.05 104.07 97.446 159.294 1003.01 69.5621 104.35 140.279 98.5898 257.138 933.45 667.031 625.201 592.056 86.1968 555.23 134.799 420.432 170.941 98.314 364.209 329.672 76.7101 266.419 291.752 225.347 127.849 236.101 201.817 192.867 168.283 93.4676 160.194 105.186 99.8323 71.8323 67.6019
internal_count=164456 81881 81168 24107 22500 57061 82575 24659 14655 32402 13198 18152 31058 21132 10643 9263 6507 2945 3868 11857 6318 9874 9780 4287 67920 9527 5369 8389 6539 4805 11483 3434 3481 5383 3213 4491 11352 9763 6980 5143 3019 2928 58393 2797 4411 2832 9926 8350 4230 4094 8555 3913 8049 4642 57082 15520 2783 14066 12539 5832 6017 4120 3106 4651 41562 2862 2808 4637 3178 10185 38700 27480 25770 24372 3278 22858 5625 17233 6907 2777 14880 13492 3275 11220 11884 9528 5195 9573 8414 8141 7115 3777 6836 4507 4314 3106 2937
is_linear=0
shrinkage=0.151134


Tree=7
num_leaves=93
num_cat=0
split_feature=381 12 424 155 348 29 151 31 151 414 72 208 163 147 438 461 161 414 245 417 195 245 180 422 438 282 151 245 190 261 155 165 165 12 424 360 422 282 172 422 289 165 348 207 464 155 416 360 185 195 118 12 165 269 320 432 102 438 339 17 424 161 341 282 416 432 341 165 432 140 155 104 261 190 161 282 207 289 432 184 360 289 432 341 438 438 438 341 72 147 282 343
split_gain=1253.2 479.314 413.195 157.018 119.259 127.55 105.516 93.927 90.0568 70.4473 65.1201 61.2952 51.4979 48.9483 48.7692 44.557 48.9699 30.5493 28.9633 26.6799 35.6585 22.1499 20.7341 20.5062 19.8971 17.4791 16.8362 17.7497 16.617 16.1859 15.0235 14.351 13.8873 13.8795 12.7938 12.304 11.7637 11.691 10.0075 11.207 10.0015 9.41683 9.27233 9.18145 8.92026 8.06836 5.92679 5.65144 5.5855 5.33456 4.85996 5.14964 4.83651 5.76005 4.69122 4.47959 4.4185 3.64931 3.272 3.12603 2.99886 2.49488 1.50708 1.40758 1.78744 1.3455 1.2401 1.19638 0.811682 1.3956 1.45516 0.719276 0.514598 0.384063 0.722933 0.335798 0.225722 0.410862 0.104651 0.16877 0.0939136 0.0913396 0.0241137 0.00189455 0.000686783 0.000358765 0.000233908 7.05236e-05 4.77468e-05 3.07803e-05 7.8414e-06 4.88138e-06
threshold=1.0000000180025095e-35 7.5000000000000009 -0.19999999999999971 10505.805000000006 1.0000000180025095e-35 1.0000000180025095e-35 123.16500000000001 784.46000000000015 1812.2850000000003 -1.0000000180025095e-35 1230.9850000000004 445.84500000000008 410.81000000000006 209.50000000000003 -16885.77049999997 -1.0000000180025095e-35 280.55500000000006 -1.0000000180025095e-35 979.32500000000016 382.85800000000006 1.5000000000000002 1117.1100000000004 106977.60000000002 -5.1479999999999526 -24509.791999999987 1.0000000180025095e-35 1198.2150000000004 1343.7650000000001 -2069.1299999999997 2537.7450000000003 -4883.3899999999985 36.500000000000007 61.500000000000007 7.5000000000000009 -7.754615832590952e-16 1.0000000180025095e-35 1.0000000180025095e-35 0.18000000000000019 1385.5000000000002 -14.833499999999907 -14197.039999999999 55.500000000000007 1.0000000180025095e-35 61.500000000000007 1.0000000180025095e-35 29263.994999999999 29.799999999999955 3423.8050000000003 54.500000000000007 1.5000000000000002 569537.4850000001 6.5000000000000009 34.500000000000007 455287.68500000006 711.49500000000012 7.4141799626966625e-11 8269.6500000000015 722.76350000000036 349.19499999999977 3.5000000000000004 -3.0118614805892212e-16 -1.0000000180025095e-35 1.0000000180025095e-35 -1.0000000180025095e-35 30.100000000000001 9853.9515000000338 1.5000000000000002 57.500000000000007 -1.0000000180025095e-35 154836.00000000003 -520.09500000000037 9419.1900000000005 3995.7550000000006 -32468.825000000001 -1028.8699999999997 0.68499999999999883 61.500000000000007 -28912.794999999995 3.8681051191528301e-12 125.50000000000001 4768.1500000000005 -39126.714999999989 7.7362102383056601e-12 1.0000000180025095e-35 1623.7609999999993 722.76350000000036 -2426.2704999999901 3.5000000000000004 576.02500000000009 2529.5000000000005 59.284999999999975 -1.4999999999999998
decision_type=8 2 10 10 10 2 10 2 10 10 2 10 10 10 8 10 10 10 10 10 10 10 10 10 10 10 10 10 10 10 10 10 8 2 10 10 10 10 10 10 10 8 10 8 10 10 10 10 10 10 8 2 10 8 10 8 2 10 10 2 10 10 10 10 10 10 10 10 8 10 10 2 10 10 10 10 8 10 8 10 10 10 10 10 10 10 10 10 2 10 10 10
left_child=1 2 4 7 5 -1 10 9 15 12 14 13 19 -11 -2 -3 17 29 -9 20 30 37 -19 -15 33 34 43 -28 -20 -17 -4 -5 42 -8 -16 -24 -30 -10 39 -23 60 52 48 -13 45 -33 -32 49 50 54 51 57 -36 56 -40 -47 -54 -26 -35 63 -34 -27 -51 64 -50 75 -53 68 69 70 -65 80 -70 74 -74 -49 78 -78 79 -75 84 -71 -79 -80 -68 86 88 -87 -85 -89 91 -91
right_child=6 8 3 31 -6 -7 24 18 21 11 -12 26 -14 23 25 16 -18 22 28 -21 -22 38 35 -25 32 61 27 -29 36 -31 46 44 40 58 41 -37 -38 -39 47 -41 -42 -43 -44 -45 -46 55 -48 65 59 62 -52 66 53 -55 -56 -57 -58 -59 -60 -61 -62 -63 -64 67 -66 -67 71 -69 72 81 -72 -73 73 76 -76 -77 77 82 83 -81 -82 -83 -84 85 -86 87 -88 89 -90 90 -92 -93
